-0.6150906030504146,0.10731795505732578,-0.6364466691956532,0.2183466677607595,-0.08969310422602006,0.8589128730294855,-0.2943470502933072,0.9587049276687256,-0.6661947919131954,0.4201203030656486,-0.9355557476863698,0.47274443471692096,0.6324408378696973,0.07918939127723656,-0.9852366702736628,0.7007147011094788,-0.10526469301762376,-0.7837006802581821,0.2687347776926967,0.25087187647147013,0.7856942717702879,-0.36926944421577357,0.8200242537204858,-0.48671165010453876,-0.7562220143756491,0.412271281353388,-0.7923840937869002,0.028345739592597452,0.5395582432013464,-0.5015730796861784,-0.30683001297216594,0.999286728637375,-0.21244021112100953,0.41792259688292255,-0.1706914986846404,0.5388331036958971,0.10822658835126053,-0.021555136836103106,-0.24570304450399294,-0.30262362895950323,0.2924220918285496,0.9248291797006729,0.34670468560046386,0.9499493023114742,-0.6623606769169708,0.8570590414768098,0.06935027222071577,-0.009884647733863439,0.5004794035136708,0.9369846669713946,-0.04158924438469791,-0.4676594031586685,-0.08040744634244468,0.8706462048771393,-0.01665871011637554,-0.35037060620593574,-0.1995144108944178,0.9530583229923768,0.8493034281471157,-0.12834193883464806,-0.39057620970906015,0.2592735644315449,0.5877474280642894,0.9963860897648544,0.20497059240377147,-0.9199202979865291,-0.9774411373233434,-0.9092039982408067,-0.17041177541663477,-0.40883188657227487,0.7414750471237288,-0.16898818086916734,-0.023323853143149664,0.5957342960004308,-0.8020562843533621,0.06719968520635478,-0.3304730329010386,0.8128019830140691,0.034855775486536844,-0.9313011272532212,0.7886054642293314,0.07292366080090296,-0.8708109728353226,-0.1550422584153608,-0.5252342805901957,0.6729482200829531,0.5061334580281278,0.4780104767878246,-0.9081954102660836,0.40328526077421856,-0.0329641801852707,-0.4691894449455354,0.3419781621938347,-0.9211275104738395,0.3055078899454149,-0.9685301656266652,0.3492268957267368,-0.5116088621700363,-0.7181443802270584,0.6088949215349193,-0.8442411179376164,0.6192113297061548,-0.4013939556417696,-0.7447630416736708,0.7720217493602097,0.6187805980253791,0.590886096201934,-0.36239171828593997,0.6562058919558589,-0.0699590112673727,-0.9918175721090021,0.26933857731903,-0.15505262837655276,0.8794605496466992,0.47070690083569766,0.2693299750454774,-0.9636495162616441,0.3638061826198269,0.7514617392416358,-0.7510994394020225,-0.7059499006151984,0.44949515579468,-0.1225571312826883,-0.7866478672863604,0.3587452565924911,-0.5200247722042761,0.4279209308389744,-0.68722311433312,-0.9120590931811987,-0.6798949282415809,0.7516333417168193,-0.10993120230866205,-0.4604329087561516,0.7871053779037263,-0.46582922391096027,-0.8695014541659087,0.5339431245044457,-0.07936100786385758,0.1479158155788325,-0.8083090458104809,0.7839945114186699,0.9221759365726039,-0.4045666507189505,0.5454060610138154,-0.34092805244567903,0.4079827823645006,-0.47735376478203095,0.8381906980241203,0.814889197042592,0.3289641625177282,-0.5611945305449308,0.08542704632923925,-0.802498564326275,0.7232257861177198,0.4871926866489247,0.4482235722626464,0.8330561943854695,0.12447551932344347,0.8227272450630176,0.32569731527249024,-0.44218357908242334,-0.7108181830784666,0.4594522073654479,-0.012932325889636331,0.9210448710596708,0.8761041429535139,-0.29816775824858355,0.39259507992644216,-0.691802267906334,-0.6725519898767043,-0.6337805632102238,-0.2442609828725275,-0.007381995981261769,-0.380049240409873,-0.63537449596483,0.14931238600871888,-0.13851275814558428,-0.826611603622333,-0.6721013116453349,-0.1932744208100774,0.9627587009816678,0.5952025167675434,-0.47446101551617414,0.12288104002632494,-0.5597744659670612,0.500741686812288,0.23138798010477113,0.482261793236042,-0.666186722074007,0.621959218023618,0.4085014669168552,-0.19565793648085972,0.7789584036481365,0.634311145499558,-0.975198224675607,-0.46128215337038836,-0.008784289098270559,-0.8295923907437863,0.3672728596895418,-0.5929855263228563,0.8270896199880651,-0.7682966755390646,-0.81086515151174,-0.2277620164281906,-0.9728122956963183,-0.20027581240404468,-0.23422424675592168,0.23089441921300957,0.40633147848980955,-0.18791760873913033,-0.11575878367074122,0.7329347211325477,-0.5698000851709986,-0.7168874781158765,0.07643569236981973,-0.16885202670070365,0.1250279382464028,0.2823443129891219,-0.9088529442211215,-0.038433564244660934,-0.3422919383383549,0.9784294857010256,-0.059916466579668315,0.15678543752406848,0.21963259663186463,-0.5205354872873438,-0.8793699677249991,-0.8223646287330362,-0.9713812898357912,-0.4832782363386856,0.9741806562910271,0.130709737783421,-0.6092832953646135,0.3692656143907245,-0.3188124051267489,-0.8896486499605933,-0.11404507553212206,0.9909384680535076,-0.19881034570725786,-0.8843540142871698,0.95267551050603,0.5974209043458718,0.5627391096157275,-0.6442398717529969,-0.6609196739711574,-0.6496740886994496,0.17055234592052715,-0.9187952165208568,-0.37449686604033694,-0.12512325163122684,-0.9519762798378426,-0.6035984535740317,0.939344805223,0.8225851664487807,-0.3956041004117372,-0.45898894551392844,0.01351309172891435,0.23261252279870925,-0.43896649865088944,-0.28987096577532756,0.3372149764728216,-0.025849415809089615,0.6363055705605203,-0.6958686932160654,0.5538836066028756,-0.12273794645050695,0.659684845158732,-0.20712439009317962,-0.3121172406212509,-0.5797841371099313,0.8980505879375746,-0.5308944694758431,-0.5403025971798574,-0.6061530005646993,-0.8654287449377196,-0.17846250107567108,-0.16366765153776042,-0.2715441585476983,0.22564167959275494,0.05392537896954219,0.7033171054041527,0.3722544732209505,-0.22454453872481284,0.07822403631712449,-0.2320434150126014,-0.7504688433439606,-0.9070832362254146,0.9747586409037132,0.44240416675493877,-0.24708518514839062,-0.6269189360987144,0.9651224712534741,0.6332572695380758,0.920380410439519,0.31035673874035297,0.7225124101186116,-0.7907075014895539,0.8498262154449912,-0.058443153096541245,0.3412990828415956,0.7927779548363807,0.4543546950174766,-0.12721849169261956,-0.12417428579768863,-0.8948732988457435,0.6382496958054187,-0.5484486708347753,-0.17928826259912944,-0.24906420105356863,0.2355698636984831,-0.5926605925579203,-0.08267647621403973,-0.8638941221461178,-0.5737491861632971,-0.9812232841563595,-0.5418721833464024,0.2890092299214717,-0.4770327913720549,0.4149533312696325,-0.28399762086894165,-0.15270321674005327,-0.4422981880715897,-0.12702542565416652,0.7472980521095185,0.8343432656227696,-0.7942544331216663,-0.7435477240355013,-0.9310826273632176,-0.6221836326736088,-0.9929538112176077,-0.21467763930736417,0.8645790436749787,0.4409190988071656,-0.9015420081628673,-0.8908402747025563,0.3668906957232885,-0.19027191214615025,0.9781128059201998,-0.017509946054416803,0.792230876630414,0.8954084553932411,-0.7836148840964898,-0.8048803363657979,-0.8106469122050874,0.7368261850743876,-0.24460409239984982,-0.17907114108540623,-0.9935835901980115,-0.23488873782236985,-0.017217409327300315,0.59040078301047,0.9112509494134764,-0.2923230327872155,-0.7802443611388044,0.9008322379278804,0.28868557026413955,-0.9111314052673256,0.7803455057457451,-0.7583717416840259,-0.3707834148160696,0.09655245716167249,0.8605806299733034,0.19418397237123175,0.6716799357611873,0.9287499376287076,0.5440289995276564,-0.70479778701609,0.3532961462706543,0.7205514510489617,0.48512356426815706,-0.08978348291765492,-0.4409911411585077,-0.03331507929479205,-0.45564875100043634,0.060049723786159914,-0.3625433207124005,0.4237829822629071,-0.8233442548434096,0.9700223153444445,-0.9246844520585684,0.9350577451839381,0.1793109422462329,0.9208093801699411,0.6969329637425603,-0.8653188379541377,-0.5849966762212886,-0.5438033626328351,-0.36925138536338475,0.4547272310616175,0.9098401484734697,0.7352645128843944,0.5402463700933964,-0.706019541744823,0.33188713323698926,0.48472528413030025,-0.7429047714054948,0.7887929387245305,-0.7166673745752072,-0.9033280340193535,0.30948165846450637,0.43649338364591195,0.27028171472586604,-0.5220300144256287,-0.3476818977016627,0.8892768141326706,-0.4045882348041048,-0.5137832783482643,0.4331668346011168,-0.49294217394402584,0.7873999447877837,0.8022963546869257,-0.04163441582176275,-0.6540656184280229,-0.1908236453202823,-0.23560089180081123,-0.48212508975762924,0.6998400490301271,0.6425045648889836,-0.15644618533423804,-0.8310472865349947,0.7348926778112983,-0.4656021138917419,-0.503260440779401,0.41823949513227077,0.26155263233736115,-0.03389553383905697,-0.13983145700314714,0.2810475964283914,-0.10384203037693962,0.3751469553617528,0.021702995336113196,0.8720707041573705,0.01691383614012354,0.45404049080599207,0.3558012223167708,-0.33529356417058453,0.30030741808419337,-0.05075858179966031,0.06192846448645639,0.8111511857148246,0.9403157085340499,-0.9815383350380622,0.15592961098557456,0.9188372051925615,0.443631702149061,0.6562981979623119,-0.26710244133803696,0.00546575609470179,-0.4409189377779088,0.14147900754977782,-0.236680572087965,-0.047572441535584264,0.1525696816965394,0.26186718196358205,-0.9914252371934913,0.3909244962719358,-0.4873888165074911,-0.4240885183033476,-0.5925448297344464,-0.6401529807804034,0.03704966582234581,0.3595986658808632,0.2636307940028102,-0.31354578693200486,-0.325534815945141,-0.8638808981461985,-0.4993000580143545,-0.9207841850622918,0.22046974444074308,-0.11076473713856205,0.7566050582679447,-0.9584698270912408,0.32726555188733286,-0.20226157795348398,0.677075792459285,-0.6759662881367725,-0.8764082019964365,-0.39173632460796415,0.22227481494221268,-0.12408641133639176,0.8017969080752061,-0.25893742483704507,0.0226579014003494,0.032433787500901534,0.856991379684575,0.38267042218786584,-0.4560957369718832,-0.5957427697565583,-0.03184798016102475,-0.5889400086887835,-0.12166409244799081,0.12350127537408295,-0.08292642116810756,-0.08995282789931536,-0.7414032070061289,-0.568154364433904,0.13313889626248754,0.23950962576392132,-0.15517722037215287,-0.5256594150865823,0.7461856331572059,0.3118869527977677,-0.35830817544259874,0.015711765137501832,0.6937204469593092,0.8366636667896041,0.8696162822667528,0.5019862774365489,0.7311687409867245,-0.4320214437652985,0.5867417268398727,-0.637177795019563,0.7833041537450209,0.6483940926629821,0.46712353192958256,0.34868090899507953,-0.5724179407075318,-0.6767879742873331,-0.47159977403384823,-0.2827672015200908,0.9442622307459667,0.9114174953991081,0.3788104515898403,-0.30276348234396333,0.9914450987128012,0.05661935623208403,0.44669745103994773,-0.36163368399173357,0.8495007408352213,0.3780998987583437,0.5907442676292343,-0.19045130648791986,-0.010190059461006484,0.9808478916387342,0.5941884154730985,-0.39549130177362746,0.6334014433113264,0.6352048051390646,-0.705887406982165,0.5482206081552112,0.06101778865456109,-0.15200183837839187,-0.6833941740104061,0.7613247281091928,0.6934098106543334,-0.9725202741250121,-0.735858307564843,0.979181818327197,0.35718391537851457,0.7743026241483255,-0.8573330663645178,-0.01695505062169178,0.5088981416961706,0.689643118531478,0.3570397094880762,-0.0182585331403069,-0.1032761201576371,-0.5845967071725715,0.7180872498243549,0.6592448912508071,0.7169096880574284,-0.6600071679085144,-0.24546853686050252,0.10121216088764529,-0.9092397825631495,0.8168421563360873,0.9046093901170154,-0.06493492163160464,-0.4646204349599201,0.5535950797169387,-0.8888108674829274,-0.6824605374621873,-0.46865044526993627,-0.18154364223902508,-0.5297544783588926,-0.668880979179233,0.8148455609866943,0.9220453831018498,0.9219665889546849,-0.7959913457303978,-0.15335916929078675,-0.527330473534009,-0.723930169366416,-0.8861290997984472,-0.515779840269226,-0.4304909718346819,-0.9731716390337437,0.2748101966519414,0.3724326808125047,0.7992071675053123,-0.2559556366485769,0.4099061811785125,0.030934617625157923,0.6655167358300977,-0.7631506202140501,0.5273758053007094,-0.3090785039075066,0.10597050740518599,-0.8048688704915827,0.18686392533399143,-0.09436079050876245,-0.479036824435906,-0.06826904653779131,0.36532519354064474,-0.07739074613327523,0.1498041356359412,-0.016940066281393218,0.8898512647275294,0.48101105722060655,0.825166759850732,-0.3920304859970116,-0.868843541355748,0.19136144215477047,0.18130744612464866,0.26939177807178316,0.7936571414199629,0.6985516539511927,0.47764184842149504,-0.8255428778934646,0.45843994107762476,-0.005897873926806296,-0.21806847687720876,0.234919705219236,0.13705478094635937,-0.15767407401558087,-0.5027749110451587,-0.16857687863542647,0.3069803209447115,-0.6486708288498599,0.709106626268317,-0.7038694219887456,-0.636109238130498,0.16457261153048552,-0.6044856894838357,0.8657439796676718,0.012729040703768346,-0.9004283673202542,0.14315143483184145,0.15304806305620144,0.9969059832517555,0.8539458052434299,0.16218572421214228,0.5085197587623898,0.29773366682316893,-0.41483967362509433,-0.21590663638885466,0.463625286883415,0.5069646943342756,-0.03807106082041445,0.20188498714180092,0.07387405916440781,-0.8400366624257349,0.8681482982837749,-0.867721890908034,0.2561533270212544,-0.1788042370287546,0.13463124631735623,-0.4492879008852675,0.8272032203691699,0.3748300902609496,-0.05331627787882898,0.21376911407670574,0.15805191558155007,0.9006542793844157,-0.08675842040334714,0.6954258040226704,-0.7186172864680023,0.873241679644045,0.994850776396399,0.06475294708014623,-0.7203274073568249,0.5465557220625736,0.5533540967892725,-0.7650358667186754,0.9376666028679339,-0.8529819327483896,0.9448295268294717,-0.23115050585843822,-0.4671259546295261,0.7397438552849578,-0.5301099904676396,-0.11809367638002022,0.4660353267128443,-0.6098299454510101,0.6568186233051634,-0.7894014524523352,-0.17604665127148755,0.33730608888355706,-0.9768628422435246,0.7955772937889953,-0.08310195854267999,0.8642188948539329,-0.7793109690444924,-0.5419055113535807,-0.05188602193006053,-0.8242708932329168,0.6717077407518828,0.18145606963083938,-0.018479819040460033,-0.33628132104733255,-0.1912028508112451,-0.27676158116476257,0.8790828857591269,-0.5522609247213728,0.11112576935350016,0.6489119609358758,-0.46662723004671536,0.5542027391122919,-0.014688653827907183,-0.3697769266589175,0.8538907746527156,-0.31443457833000266,0.8898661651165185,-0.20673270323565385,-0.4496073880074243,-0.53063637975968,0.025089311686091298,0.8323441501699507,-0.24549090775842664,0.9873442010243791,-0.24787868443483485,-0.12201325284037146,-0.7666025412753812,-0.5856512724003897,0.8585592694866857,0.3535630193595387,-0.22568358775002073,0.9430581271337379,0.8209978746253117,0.5100648873824016,0.7698000944003824,-0.42922108549723714,0.0852339104780806,0.2927197475567265,-0.22283101194281985,0.15519615173785484,-0.5095438459366479,-0.9670948456737336,0.1925977764896345,-0.2678239543350043,0.9774040656349314,0.08553562206075882,0.6559799281907885,-0.9075606686306232,0.008535939918751012,-0.16889865851415498,0.8490974310610724,-0.6706344497184291,0.18741536552411553,0.37722143974960165,0.20638738600105322,0.38639310891504564,-0.6120106120441242,0.2796803553885483,0.7407653340199611,-0.15261930866940632,0.005726889878924446,-0.49690904599382346,0.03863189486499374,0.3916225959189632,0.8550641989307701,0.9178764553353727,0.7061989144220675,0.6122358239525334,-0.7506522606114849,-0.18073282828934611,0.4356508782888262,0.8200510470705442,0.21674090745863994,0.3206159061007763,-0.24794724675417212,-0.3699163512715269,-0.10297410096345949,0.6688966671652514,0.8397693668787796,0.8280182222570474,-0.5457371765639967,0.8876575568372076,-0.4532797156101369,-0.10953219448443652,-0.9101197894960318,0.2373173969358593,0.9083207275752625,0.8465820881864865,-0.6688532002365444,0.7184376325270736,-0.7092944860112094,0.2175402805144715,-0.31810091423484055,-0.2868478674812758,-0.8874481350665564,-0.18646669219620726,0.5217119148717986,0.5733378104631139,0.7196152282915,-0.6038943475724949,0.13371512093164717,0.817811070002584,0.30329553819005395,-0.016562037425902343,-0.8272841579723649,-0.039622972973813564,0.5362200646684623,0.4511395111165317,0.3560457623400308,-0.008078499345204104,-0.8870992999330418,-0.4444895983643391,0.3255466412285324,0.1824561817336341,0.726778220847415,-0.28385499872577946,0.3321616698407286,-0.587974672787219,-0.8557529584573202,0.6180085808257463,0.31436658635908366,-0.4812334495001789,0.8953681300613383,-0.8017698612944058,0.005883305670858485,-0.5545506093075108,0.8904375929135544,0.6184384584280689,0.5933961316056215,0.6022527084004854,0.5820727022012266,0.8492698914825538,-0.506547746637676,0.2635717050407633,0.9081603473454454,-0.8719948686197216,-0.9678297751555345,-0.483726035404918,0.44000453404628415,0.002722509975092713,0.8734600041108838,0.07196589795748842,0.7996784829077492,0.3910442186112204,0.04992533057530202,0.5134583393004823,-0.2282714018760703,0.019219903322003296,-0.2884381447447528,-0.3232277462810189,0.2507332478155533,-0.01667022213295044,0.5985684251183423,0.4872961966498137,0.965681506577545,0.4299022207269283,-0.3971028996499615,0.7590130614230548,0.9452938511759355,-0.7307264646554614,0.7135925942155195,0.6484880902502326,0.8059592470815364,-0.7001517686876078,-0.829555347862202,0.4718160459559113,0.3809848053376075,0.6937838359934323,0.27099623248700166,0.43157676462936423,-0.5038218712641491,-0.8688025335602367,-0.017273002589262454,0.6783460779546662,-0.7042653041328886,0.13441172484002695,-0.6544492836105444,-0.4014489492381701,-0.5183686602421713,-0.5680316989085108,-0.26941920137717745,-0.6293143796901695,0.48848607897459373,0.6796955359215917,0.3306225067581139,0.2893220899771247,-0.014074873744807537,-0.549079590688716,0.2137668771464134,0.4176254659745977,-0.5637978991012083,0.779117798976299,-0.4563080555150385,-0.4245672641655742,-0.3232578545495586,0.535259154401043,0.6797125039692733,-0.89019664431172,0.9545900493029611,-0.6745548000845916,0.58552383529181,0.3592105702158419,0.9665767608966733,0.4977308461129786,-0.75241755049518,-0.20815327919998095,0.9936159160338596,-0.069006465893108,0.35859134136222504,-0.9676897157360786,0.6935170310594785,-0.3482656413830736,-0.8887644532133789,0.5234288406376089,-0.6780261946864927,0.12276585432905196,0.6492918220382093,0.08507275441794682,0.32184960904982507,-0.33536977841527515,0.8642496548064347,-0.569004617464304,0.3582681744554377,0.7690173464262422,0.7381182757115781,0.8222656984875583,-0.42133429989269744,0.9230944433988075,0.9919966908112738,0.8630315264815762,0.7204458647433813,0.02260222432663128,-0.8462898865942041,-0.10203068650475822,-0.3191601993926627,0.2625469252249888,-0.5577107446973701,-0.7475285562372658,-0.3079676429108422,-0.8316496183871511,-0.3005219787125488,-0.7433028320504675,0.19445164149443772,-0.5551824967063177,-0.7409843582127673,0.9202480916240847,0.09730844613116751,-0.12522012308995345,0.23344858381582534,-0.6149907268948145,0.7404867763807461,-0.6054705768053006,0.3570256266780787,-0.6855338469954715,-0.2459339862794918,0.9635411417695232,-0.773304768541637,-0.9123888918915564,-0.35675060782276224,-0.5300889061994598,0.6273043723134626,0.23594555104448145,-0.0404954570364342,-0.19622740117117266,0.11377576283972823,-0.8160468715511184,-0.019761051579124222,0.2529911194001653,0.3676597934032457,0.8636762060668339,-0.2571999629837298,0.04885396192196656,-0.12956796704986062,-0.16911018043595094,0.27572581275177166,0.2156348137141535,0.6681981038615357,0.4295271676643382,-0.32675887314524776,-0.8548414417879622,0.342344299857108,0.887984679206486,-0.727072279790409,0.33470218904329063,0.5204328783596357,0.9908078093682378,-0.27377382740498124,0.5458180654168743,-0.6392622923382807,0.39223981201207136,0.9958912131508304,0.7623052706708013,0.9069675964224126,0.4792752456466649,0.34290687772941153,-0.6967580049513478,0.29969608265406866,0.4759404895046646,0.5040975984369527,-0.6873089531181236,-0.8439934033711982,-0.4917774339987182,-0.35243185176903724,-0.003150635856297601,-0.8925027921309081,0.8124207949657569,0.20075089839649785,-0.3968151990348632,-0.6786086705043086,-0.716563067695704,0.385421080350552,0.5506138619136356,0.1368138821000784,-0.7200384844388494,0.5294130780846231,-0.95564428375205,0.6754288450502253,0.5814100870715297,0.7039627927285075,-0.6473470853680385,-0.4831516227728059,0.4402307811477797,0.42485453899024184,-0.31014106363587324,-0.2708043087058041,0.9663593432763897,0.08748539616932716,-0.3070783876598757,0.2960323796598032,0.614248596054336,0.2996731384287885,0.6797124077428807,-0.780893649188459,-0.7102680455430175,0.4195164165995897,0.4153740455336261,0.4215318118419551,-0.09297504966860104,0.7095021956484675,0.15374570341370353,-0.8772178312435865,-0.5845540708389831,0.058509689730927406,0.6462052707766419,-0.672687562826082,0.33004414985480524,-0.09151222039665607,0.4774205793214432,-0.5847867322821105,-0.9801756394180303,-0.15701513763957453,-0.4942516646252637,-0.5238953576015748,0.222248040227512,0.38388811079869467,-0.37692933956327335,0.5191934780424052,-0.8102072769886954,-0.38179407368951224,0.8362201998219669,0.06510380725595022,-0.6901741998112656,-0.329612749640007,-0.8729513771335446,-0.8039580585110571,0.5040689195094816,-0.7816862944521044,-0.4755100108158776,0.0586341589412247,0.7896031925496478,0.1915358285727775,0.006485470022691953,-0.37667787819109066,-0.597176428287987,0.12549207183446676,0.38479246943100587,-0.6572762659735161,0.5137199372556793,-0.13651826772964437,0.25904588211265134,0.2752333940717404,-0.10891055280542195,-0.027852583742622228,-0.6267413253308656,-0.6942078670294278,-0.9824505287400889,0.149442886164443,-0.39086383245993517,0.7567514658373795,-0.30034725163125553,0.37825397622603263,-0.5574643451585919,-0.9292507383514166,-0.3899072807341599,-0.30073054239881847,0.32051967367634004,-0.12302385653422987,0.8541073236119336,0.7436849692645278,0.4673520379761744,0.9510065620004029,-0.5658264408882274,0.06059540330347146,0.4317586182082922,0.5209159284282117,-0.5850475321611837,0.7870538660902457,-0.17022083653047404,-0.12190437839404678,-0.12325991018768145,-0.3471981931573256,-0.8627544534361129,0.10296955102635419,-0.0062967260350836884,0.8693696393642802,-0.6460184636831918,-0.742848816855908,-0.9901213059726981,0.43248207418494733,-0.7765787949743133,0.23120790817846637,0.47608007838054966,-0.8720924181415528,0.9401905131078108,-0.9593798401145333,0.7392741676400028,0.41353140529145094,0.5277609436398125,0.7926784331693149,-0.7027429741331923,0.7480118154387418,-0.9046107226729962,-0.8058211201527339,-0.24375592972099036,0.364797449740204,-0.6597647826784472,-0.7891978379155393,-0.9991981332050603,-0.12593142238557076,0.7433098890209893,-0.902994508076026,0.47201505707482716,-0.28696069437780203,-0.633038715645585,0.7973234356791556,0.08845905710658997,0.7425908740597043,-0.6994511567489661,-0.657828678773273,-0.9570577294385914,0.3745420036377278,0.6315247562631894,-0.16482599696553746,0.5291376995943797,0.32396252331355635,0.3775158776265324,-0.1885215840861043,-0.2095011877385582,0.6895486480405384,-0.20703626134692898,0.8162262425132512,0.43457685721537187,0.09869699817926669,-0.37536825993654666,-0.9692104251355611,0.26039598863259683,-0.7591286497993397,0.7809396925744707,0.7067572707074292,-0.18185864438420496,0.5276700139618713,0.1386777987846035,-0.5100011778653066,0.31743822580102377,0.2956102696318339,0.06892107396228142,-0.6471803475253413,-0.02924314667097505,-0.9082676504926224,-0.7018325993355852,-0.40774003808456394,-0.3529153474151052,-0.8352629836211067,0.9064951679567705,-0.32154157278471907,0.3606885948685785,0.7691180824933521,-0.4706032674322256,0.6639718878181775,-0.19934844547672603,0.16726262371609568,-0.3690004557810562,-0.12130728156792414,0.6412846440291702,0.6802383339204772,-0.9120327251592824,-0.9707556228182406,0.8038551461303476,-0.5271152009997788,0.011678882056806561,-0.6395015339979075,-0.8410234226548736,0.6733830750026104,0.3312196077274252,-0.1439830445500132,-0.4012722500907733,0.694596853710159,-0.010546086344706218,0.9128864363856295,-0.6345196090675413,0.051147576396344485,0.3002521889605756,0.7241340382729293,-0.3305772275297636,0.7862284598073519,0.7588931302637847,-0.04694842907649632,0.2726327939115789,0.30085196127432634,0.6422787298835622,-0.47721360709265737,-0.34382933180721764,0.7692649337505375,0.6957209605337482,0.8914201686990988,-0.6709994009011411,0.8450531744196237,-0.138728684214519,0.7823527540808715,0.34878749229742056,-0.27606201845771383,0.25222162892049194,0.5359147753243372,0.22701484192180277,0.10847469528042697,0.2902987410958584,-0.896021407774723,0.23970861042442104,-0.8712448972234397,-0.6003854648432299,-0.3520047079581792,0.39504405285098576,0.5610413734496713,0.8797376171347051,-0.08364689103068867,-0.4811280984068538,-0.891642691214259,0.19950170733716077,-0.050718606091532115,0.37373684424418907,-0.012229721472725164,0.12973531245497671,0.2270266375103842,-0.27719634244356817,0.8013798062487727,-0.40195221531540803,0.8427697826188414,-0.6980688299912035,-0.6315439763177964,0.6677692014589849,-0.727151054692792,0.8365798825844717,-0.6060481977046726,0.8673916780082342,0.42559601220830845,-0.7057916136763378,0.16206618826266084,0.2937835522888417,0.3445210361572828,-0.5603079506534543,0.6625675353179206,-0.8439884833281066,0.40813280083035397,-0.6259758917801364,0.8709751099081489,-0.8756747983848958,0.7407746017126371,-0.7537292252649286,0.14805910747575557,-0.5399589259021227,-0.13901029021105038,-0.5958880703634968,-0.8228558044574656,0.19378924498011108,-0.6500386035860004,-0.48896872574156425,0.622970686367464,-0.8282766727864805,0.2784306044611642,0.7128778526108586,0.5465910083352281,0.331505599985777,-0.6991018216398217,0.42669898983078713,0.2328575570280027,0.7132340222334448,-0.11149949582405583,-0.9492075705665246,0.9324711462658253,-0.6372128920952216,0.9093273937496342,-0.8975529410231029,0.6671193523790302,-0.19083960265675448,-0.05754712025493247,-0.9817869754984532,-0.2620274847022992,-0.6838008028900131,-0.3147536729634517,-0.851279964457063,-0.29441385784375274,-0.9330744220329563,-0.3721476950409981,0.25746149085362013,0.3931870697239035,0.2354639516673478,-0.8801756936270568,0.19251549598492335,0.4579417007052826,-0.6353777861071297,-0.3071691099781506,0.6200700762264781,0.9325970984073944,0.8140875018646985,-0.23707158446831844,0.2909192857406273,0.6751581064605809,0.4740116407828796,0.5105538568041172,0.9731057906250191,-0.9466317081495732,0.5767610841116058,-0.030805686251640374,-0.8217731711141025,0.985009838086444,0.06643670824312253,0.4081870830528149,0.4729228135373713,0.43650908327278426,-0.816308187720904,0.39446138454278556,-0.3876294250946237,-0.7175642508748545,-0.37270285798281866,0.33246182240648414,0.023708874932453883,-0.05069446235421027,-0.37578596422667054,0.8282777521830191,0.8778839936155889,0.4067757476689384,-0.4392586362756825,-0.4556847209330612,-0.25459799339105516,-0.6995746639918929,0.18680566422878542,-0.5894485566881538,0.46320019383473876,-0.9251413497474845,0.025468176387382746,-0.6411471935886253,0.18723980975145604,-0.011700048407252472,-0.3894166001705599,0.4352766337048488,-0.14513663326568116,-0.31123217884978605,-0.3589696957597155,0.8333922402999339,-0.5251082852522204,-0.871800456411765,-0.952945554028918,-0.3615292974961102,-0.297986328274388,0.4143971561814299,0.1015683010766868,-0.7657357047019298,0.11800523082549641,-0.856987481503594,-0.8729702518374503,0.22811086179202467,0.9693024936378545,0.7477501608417203,0.8950681050739637,0.8346083197390386,0.2036060547704761,0.0789651371125979,-0.5486586094492056,0.7741199002760544,-0.43444763353040106,0.7368755503725706,-0.41092632539552953,0.50322972780945,-0.40133501219959933,-0.3784042483362382,0.8317511495438483,-0.059441022179261394,-0.6395102007708375,0.355236001760896,-0.42949979401382365,-0.9834234812868201,-0.14289579360361349,-0.9524032551576216,0.20016016963042205,0.9336200630647651,0.7639994899344995,0.23941271701458766,0.8974076138596119,0.9243810803793084,-0.18166683834356823,-0.16684389025591084,0.33185019194119936,-0.19471656409646632,-0.9966207265058518,0.14751964665513717,-0.12234598338596259,0.8074520740303979,-0.600328384374748,-0.9944260058716938,0.5604298463092918,-0.40221713193353903,-0.9363112049864921,-0.9722390601608162,-0.3539609557855097,-0.07337887039303626,-0.9480778962495837,-0.1161481277220695,0.8633141541908829,0.8638240809792264,-0.6146700881022813,-0.12620131422575476,0.8846582851335107,0.5235212090235877,0.23652392606344352,0.4001515147990673,0.08177217758005151,-0.7336504660805538,-0.9761308893932168,0.45948959412940593,0.12878906936271228,0.06266162096735228,-0.8619161477307298,0.012810684332251743,0.907141735947631,-0.9317093147691908,0.29576193912221593,0.9787839533067153,-0.7205340437169827,-0.02488207016862254,0.3192348055189542,-0.21035271730058636,-0.8623288264172857,-0.01789047184448256,-0.29545248123520973,-0.4476512997298565,0.6665921450836587,-0.04049371070909946,0.6721170661789082,-0.7861504834872104,0.3092588995251213,0.7915283479334294,0.1340617574448577,0.8621319698663668,0.28742137492694186,-0.2721643416614268,-0.9879411410768282,-0.40985351668623893,0.5694054146641874,0.7722856942277225,0.47849188200693216,0.7693330920410113,-0.9791073336772065,0.8433547507316084,0.11737215093384368,-0.5502393789363424,0.29077393750878433,-0.3294038997531543,0.4399859920544158,-0.9192949992050086,-0.4651797569218552,0.8811231207161307,0.9986295470912505,-0.14748547422092573,0.07296679300075626,0.5905515267002392,0.9560120011466828,0.9399458751640577,0.5472193139218453,0.793704282302641,-0.4748372331049737,-0.4417456635876993,0.3810038621114291,0.4487036336158914,-0.20366403007208445,-0.21915301701045076,0.17853431608630577,0.2897015139099408,0.19447196196904626,0.2567006918359407,-0.9154119066898168,0.7948962379982725,0.8469803129679758,0.1389999135495228,-0.468575322109414,-0.3220924525108857,-0.25697311296344805,-0.2270154116728622,0.20921076391078186,-0.19781303865617428,0.18238515028373703,-0.4831658455929124,0.6355077837166643,-0.701263157956616,0.2171363585680346,0.6664500799207096,-0.3447181608896548,-0.38606027987613123,-0.3457922216042486,-0.16986192484130047,0.48321894978834457,0.8111287549340247,-0.6596555513050442,-0.9948353975351962,0.6463486082550998,-0.506777934494306,0.2589972238532603,0.6021730497898203,0.8250725575884985,-0.8148363594659007,0.43788444210000743,0.5810107702780716,-0.7477553873309426,0.5221110460858158,-0.19913011570175265,-0.1997615392029639,-0.88574069468435,-0.3719501200436075,-0.6452968849703391,0.7717461346920462,-0.18429193926463228,0.5418036564900919,-0.2050004599991062,-0.06373953229486085,0.6029731249360919,-0.93583551263615,0.5056038292826981,-0.18940780824563253,0.706173698722671,-0.09010132574821839,-0.5585599469120133,0.5725097127965544,-0.27308371824743216,-0.5643730605645918,-0.24210302142545492,0.5997559401966925,0.3806347604306035,0.1339830298902145,-0.4964086619280885,0.7286155144048916,-0.9910903106188687,-0.5265869336371771,-0.4172711225719816,-0.4052070758520523,0.4916144819066328,-0.8502566647073069,0.6645933601530285,-0.8134983440182444,0.6053157668238838,-0.29905375445113425,0.3173166134717831,-0.357577479038085,-0.5252602973173852,0.8613740032941064,-0.7565117945032325,0.942984443351149,-0.7980352681112861,-0.2988314104097294,-0.8041274538845846,-0.06970010859399745,-0.5158538245054252,-0.4276370243606915,0.8940989279873937,-0.1267452369111819,0.022725032693400093,-0.36850378213427515,-0.12652877165976162,0.41499502326674964,0.7897967964381745,-0.9375391806053401,0.45573984721263927,-0.7183727202259911,-0.6919905961640429,0.7411641957734993,0.6113730502413179,-0.006922456106654096,-0.15734403448579437,-0.029360625210744784,0.1667176518757041,-0.10042423044384075,0.818800257244582,-0.5764948409061268,0.15845626890624875,0.025064533837855008,-0.329257597588525,0.6873108667111987,0.43159499846852234,-0.6453278875233339,0.31430264168812183,0.5879363261098665,-0.7167644675387657,-0.13829850983320013,-0.7276081456736823,-0.18179802606756645,0.36847102124885,0.8974958577158376,-0.24599315217826434,0.398547810667498,0.833020910736916,-0.1290759189056656,-0.06582077755990867,0.7649926373550868,0.032427101800314606,-0.14720491472184127,-0.09210351871091271,0.47271541188837696,-0.15347179888162144,-0.23779751704516916,-0.4107753336272679,0.16563902269721353,-0.46504518809680917,-0.11874608747627335,-0.4572148267153606,0.8804722241457841,0.02175397801480483,0.7325256832536247,0.30053305080454473,0.6724844470827427,-0.9353267377199794,-0.5473511747521009,0.4775918622222237,-0.5661534455740864,0.8161382463267934,-0.41827117333974173,0.04469326836667231,-0.29950212141137156,0.8947820400823814,0.05257070482227988,-0.6538864280508532,0.5442649391488397,-0.8968883588426744,-0.0018370972880390468,0.6235847994309616,-0.5559279057129993,-0.25934666359803815,0.48442490697431473,-0.9497205797049384,0.9508859396723011,0.6993307891853449,-0.44297151850789174,0.009531939355688523,-0.9754220447033106,-0.9632909372483853,0.9801022065873699,-0.543580412141405,0.11532700327236234,-0.29047697265674466,0.7740418264039584,0.3058118081491292,0.5733717981539661,-0.9522970915583147,0.4229796988772654,-0.918506646432218,-0.9572503882853654,0.7911038832237236,0.6868725044008825,0.9788797542722851,0.6891564496256368,0.2077060254850056,0.1354883980560111,-0.6003523005531481,0.04779697564779006,0.9503699072555021,-0.816115022955695,-0.8444711809616923,0.44862242023959853,0.7389546871211523,0.7555347144249969,0.023967865161154345,0.19009960163263795,0.8887455706204948,-0.886992783903928,0.4795158021213455,-0.7760594191293149,-0.586145354477515,0.7337004207612465,-0.9445513603675406,0.9052374935538205,0.44186698252186085,0.5230644876270358,0.04779358639951714,-0.26654744582095646,-0.5174965016563198,-0.5671171208726344,-0.9054276434627682,-0.6844680181788243,0.9149856083626398,-0.8969415919909767,-0.21037028682917258,0.14778923598293048,-0.8591205850154535,-0.30009446821688135,0.3091630030099719,-0.6188592676663558,0.8252211655617774,0.23169795900495194,-0.7104122904684886,0.10193828119725912,0.005695830406163838,-0.5988694462842807,-0.9291756535775406,0.6973472152743401,0.07623094297266553,-0.7450999335065669,-0.5972010564091821,0.8571730020065316,-0.5445694774198766,-0.26526706547412005,0.33429618137216033,-0.8879267806584583,0.8769205805130766,0.5782552062330635,0.006784627648834363,0.4224990292244408,-0.16474363550629922,-0.7190777334560081,-0.48909649692533064,0.8989042434475827,-0.18718813479084329,-0.5224934576748996,-0.35112642421447804,-0.1993161904731937,0.10358655326087707,-0.9978177497646177,0.9771096637604519,-0.7291843263861617,0.9029482164052118,0.15782389648959017,0.01738813025666297,0.08266106825360886,-0.44476940852936275,-0.31978504451415324,0.5817879609135927,0.4292212968590503,-0.5176768131188934,0.4392550253965253,-0.9031583853360345,-0.5209012887005846,0.3167946283681917,-0.7595380676975574,-0.08632512724227204,0.43581629716197146,0.4110212422553805,0.03506662605288979,0.6160782354625571,0.5088787701801933,-0.626347026640752,-0.12840412737240126,-0.14167494334952724,0.11619648180244613,0.25744138106636094,-0.5650321745937055,0.2720539712338086,-0.727948786520221,0.5116328459256623,0.2713864634285663,-0.7372755860668887,-0.9130044857218342,0.9154315832657964,0.07671747487879688,-0.18768657047314252,0.967017080103215,0.9397374358640402,-0.2884088473154891,0.2975626541843832,-0.6051488502569475,0.25928819858912444,-0.32794807133032844,0.03035020075741368,0.4662654123086314,0.5635187024568016,0.5688714380865776,0.2155758397043379,-0.305086520876378,0.2978323562456304,-0.39501645507101224,0.22071483397472713,0.11343044202623398,0.3562746495476852,0.2246775834905772,0.09838247579958592,-0.7050633182529802,-0.555979956988992,0.8033528813447961,0.06527901587482177,-0.7874693547336045,-0.4934306320723798,-0.19477691756757531,0.5977533570426141,-0.33740344037353664,0.1693871307549355,-0.7960638756956304,0.18312783945388755,-0.3368673451377744,-0.6305205979290494,0.039656559308606676,0.2757582909043852,-0.49895062247516697,0.9531232752649408,0.5209452128785905,0.3029915620647421,0.7620275711930622,0.9923859832735005,-0.068175152569252,0.46630762978691487,-0.4089361155071354,-0.08461462829168642,0.14065546636761384,0.8462201949168067,0.060679000077372036,-0.08151212662861274,-0.4033979796649414,0.4989647792750873,-0.45766756516951435,0.8510395820291445,-0.5544723146426136,0.6461705011950114,0.6367530445401703,0.40165110475594257,-0.6052868798607476,-0.7317991209913348,0.7039016432712428,0.9711512601837193,-0.7549182077833307,-0.19585363528976574,-0.750530806401644,-0.6460218810887,-0.995514352797725,0.1503781640862245,0.25060901559461213,0.6615289083280596,-0.011759717999006547,0.6880175240718012,-0.23932449995595517,0.987099298548832,0.7046939933519945,0.0018924722835904628,0.12334925779831662,0.44899340539331334,0.39678172381012655,-0.677712273494703,-0.7439385218112595,0.6521423394390451,-0.12837088565807275,0.9541733688095209,0.3163045041872812,-0.1643770684961221,-0.43076973958680953,-0.233596596931821,-0.8689864765334108,-0.9959447039665084,-0.3422278798652594,0.48210949285459925,0.5744659539309918,-0.41819665839183595,-0.8448109205746497,-0.4782375766409823,-0.7215963194441792,0.9056484528824398,0.5710777111200831,0.6314867418374184,-0.08572909313866295,-0.15449672931910197,-0.39668125985005465,-0.2682572370746734,-0.9888133435098951,0.49067809016983066,-0.29597443091617515,-0.844752603539304,0.6653272355713102,0.9241509338672798,-0.879071785254637,-0.6269918184083185,0.4354854922056519,0.839950791575272,-0.4860842437980246,0.971270614043259,-0.6158543030752848,-0.312893541470719,0.8545493183409565,-0.7761699089948422,0.6001149829656776,0.32306680440393465,0.15474026080339431,-0.770178363761294,0.08517214889612412,-0.8053695831425187,-0.3967078251463745,0.2689296836370376,0.6678439232761977,0.6780336765172374,0.9546491812906084,-0.9230130915673793,0.9950916783731989,-0.6784894125436889,-0.11613484958932863,-0.7052928158976635,-0.5378784307914912,0.9369342814747676,-0.20057888059962536,0.680683389890306,0.5034868406984048,0.7408828668177869,0.9919951557000086,-0.09845517655450764,-0.5161964458891404,-0.7713428097001929,0.8770824478548949,0.6358154805830318,-0.8507063937395909,-0.523464316004733,0.5512803515925124,-0.7109904646764098,0.4795299838273732,0.11412416274718495,-0.3893410070817367,0.7872854274997645,-0.4475523883680512,-0.022173607474615276,-0.9651121542609797,0.8697589201493736,-0.6355375183832326,0.4337051366399871,0.001028922319504355,-0.43736259070034067,-0.6067715833425544,-0.8987832570182526,-0.4457445810551335,-0.5797918584850261,0.03525636893164674,-0.04707532026454175,0.24347777105612156,-0.7698953325532936,-0.5052373481443317,0.5815346221113666,-0.133377035237499,0.03967052857658415,-0.44173975978834257,0.12198375095524905,0.4883930079055696,0.9742572345599083,0.6251371568414785,-0.29311723350884833,-0.9890576401320539,-0.09221385502587442,0.7230096377806348,-0.5485153071826245,-0.32786974573404093,0.10124878616521515,0.8742741103707412,-0.511569380856693,0.6979514303889036,-0.29267752394210755,0.7331974680712043,-0.11874762652733617,-0.7800068104950022,0.021933695421939348,0.6223734646328978,0.392057807062828,-0.213440381840456,-0.5092498531346525,0.010418418350737646,0.21672449864951737,0.3701585856698717,-0.8960224545266071,-0.7915314857000835,0.3309306331704627,0.05152999319217977,-0.715875283490137,-0.5810096876375785,0.8128092054495897,0.36282204807551777,0.2847537806217708,0.09512786989410627,-0.13013934523348225,-0.09276890453514786,0.1553517903071051,-0.2632869730120193,0.3814273441564444,-0.0181015593139775,0.46790727828656764,0.42176942698934083,0.041957232018849044,0.6331082999105853,-0.1943563657390277,-0.08899824685060875,-0.05199400967557444,0.7551101532005038,0.9222332924965251,-0.10180439870050417,0.7855143310420158,-0.3030598967945686,-0.01552892951648932,0.8775364143437869,-0.5469460797004329,0.5150880534433089,0.4680925870311783,-0.939839824580722,0.28333658431551445,-0.06752061838901158,0.5311737859397834,0.9831441802422682,-0.7063212271248256,-0.7221675159916285,-0.6918777225783921,-0.921715746774644,-0.6551143797209673,0.7982375344474764,0.3527295035710387,0.5695566140664907,0.725841182843393,0.3785577172651313,0.6935058066928845,-0.8520634887549396,0.6653996443473951,-0.11687219218272338,0.8276266335502065,0.551782564339838,0.7379856034021708,0.8974941448189413,-0.05030987747376359,0.7659061723345906,-0.9379349424321082,-0.9472513274523262,-0.596421911142023,0.34365374065607446,-0.8159320926175284,0.0711664746173406,0.07564308707404854,-0.5765786895203568,-0.48253306053492384,0.60542230861244,-0.6742543700011603,0.8359950732462837,0.852859798497847,0.8702815167993403,-0.09145006066441375,0.2197799476977429,-0.33619709606637227,0.26768200812483034,0.8863510152868779,0.9333959666931679,-0.6160843210944364,0.8557655357281522,0.0876478740417741,-0.6890068427446534,0.9180891784900074,-0.9278037121101237,0.7285092003503333,0.9380276712074183,0.7544418932872823,0.33215519994931775,-0.20972445345356294,0.11578291425463405,-0.8134472880255053,0.7207807266319601,-0.8297520232781375,-0.10836963248884746,0.6533772766947263,0.9498221576700692,0.1808739477189556,0.11292900199430234,-0.5208504629479307,0.6681331792052929,0.4025589139825996,-0.5858215845074513,0.11656767997056927,-0.9693259368240412,0.09645186158747632,0.3547131030080346,0.39205428381710505,-0.557512389994455,0.710019172062579,0.7051775578016635,-0.9639623730785178,-0.13842042898035722,-0.6976087457903464,-0.34534768126938165,-0.25318072632066535,0.6600144011063516,-0.635257623495979,-0.11234192957183953,0.8295817254630646,0.4301165682296797,-0.8942486620459789,-0.0638131948992835,-0.48758026461635495,0.3891673051102744,0.06636532956927521,0.9730375177877666,0.6085646584779163,-0.12030186941028109,0.4639954798055179,0.7285603243300882,-0.7185902925452761,-0.609326948910935,-0.7062582933318966,0.2743708456588023,0.2866992338790866,0.6515682925179405,0.3029512758380346,0.73459042987629,0.6039271566226758,0.6961098566139243,-0.23381051814872555,-0.8078019842075133,-0.7306255716806163,0.9406050618498552,0.4605471924329041,-0.4548180438557379,0.33208684303555946,-0.7605509769054213,0.7670116042546633,0.8960132585523974,-0.3897323458921296,0.540224410034206,-0.47218841878876683,0.48416437968173587,0.400684575747406,-0.8523576493631322,0.37184478909629326,-0.5902154025327135,-0.849723211632206,-0.7591485700949616,0.17107952185750475,0.5243267799727225,-0.8291641600859978,-0.9470312118074695,-0.0864562218956384,-0.6985703285830804,0.7263450902977087,0.11471157763747164,0.06007276136043571,-0.9132371535467803,-0.43186215231696234,-0.1288637434997888,-0.6519632683948868,-0.9563007371833008,0.02275122340357494,0.5514719614938843,-0.5909075154707386,-0.7988124305574131,0.6585715052986749,-0.973915175721298,-0.22273269826688136,-0.7065854253213419,0.2608659782467895,-0.46944741498965836,0.9246053959766025,0.7118315764313436,0.057441088637361304,0.8340461177393239,-0.33068998463015586,-0.8864690879921882,0.17160259350743212,0.7107461326261655,0.46434698034138355,-0.977048849174164,0.03862454601916321,-0.41375750444687465,0.09240101931605382,-0.2593262126450846,0.19939818083044192,0.3227419037590802,0.6475304286840069,0.6829772440740172,0.3283440065618748,-0.7690802329083388,-0.5992237673282257,0.8525194710059649,-0.9005037537911331,0.2821526257759439,0.23280779273436836,-0.7785198848513504,-0.13873634435916826,-0.4865240878314512,-0.774704452994047,-0.0418437387563908,0.15621243992880007,0.0428863310845049,0.9015905332145426,0.08292738140540457,-0.33764240273597323,-0.8196718059056702,-0.8073413718853479,0.931283843112924,0.4237105921172124,0.8307707711815218,-0.46010087815660583,-0.9324881964989782,0.32806121005488964,-0.5120246107282338,-0.5164370515171743,-0.006363728972751614,0.18389132373996575,-0.6555749213125144,-0.4703631941199622,-0.9398401813947033,0.11739900337550546,0.7932990346687956,0.513040584584237,0.9979060061111467,-0.740387257482356,0.16870150309836274,-0.001118519880254354,-0.3330994247254655,0.9896925758958819,0.4912133045422027,0.2316943673452323,-0.893790534430212,0.7674949262778552,-0.34750099051295313,-0.3242580113298894,-0.3862606946689702,-0.8807142831675758,-0.7684114475920094,-0.5718639551068547,-0.04376706954368159,0.9435006354042403,-0.11796858315023928,0.0897332375430262,0.055642138299292876,-0.7545464983559185,0.19999455769880847,0.18374442540633606,-0.7146366086765383,-0.7563181292700327,0.28364991332048195,0.30755050648669546,-0.5898021231824699,0.9752669140471042,0.5695805567227361,0.24532273577714436,-0.27301854302327655,0.41771258886780904,0.07244114026143,0.9784310057478012,0.005850584805686232,-0.5515461045795613,-0.07988468577043806,0.826713565925747,0.6857638769279435,0.9395502101458455,0.41732195492361557,0.6107214406419577,-0.3963956921984084,0.1857697616154097,0.1324974576821203,0.8727727434317087,0.2562669228398462,0.8151310718134888,0.9091144210508271,-0.6703202673676412,-0.721330730222812,0.10467536144057843,0.3227084740563846,-0.3887443164878519,0.8545383319741273,-0.27984141627178727,0.6731720105714121,0.9790369012688267,-0.7749539818913984,0.048685079195755154,0.12827084815327439,0.30423490062800695,-0.48972053759997913,-0.9779466167224136,-0.7630027562352164,0.9895277611902658,0.5947017193374782,-0.00243466723958341,0.9603395940293271,-0.1777479314258692,-0.9812204461547909,0.08028509229916159,-0.7300528630387093,0.61877183039946,0.6397388423808641,0.7061768239986508,-0.7035430911326708,0.33270907218791246,-0.12187417203834339,0.43547535606854404,-0.7801937096637883,0.09456740638452499,-0.7944563960211299,-0.39985421619479955,0.7736942996309437,-0.13254381210015098,0.41622029870745125,0.9041264184940121,0.3533862609835905,0.9006857593165791,0.36279938045896887,0.47033732414658136,0.880385743207837,-0.07559020542141215,0.13728560169374426,0.2710494093408955,-0.7675127899506362,-0.4664069680358309,-0.17882154271598227,-0.6297647778610205,-0.2527689324816971,-0.7040072377618913,-0.04672396201817541,0.5806699493098351,-0.15682743796688703,0.42708975076337596,0.5527723759893921,0.6318850449751381,0.39183230327213936,0.9097344909894025,-0.14337169845209985,-0.13823717141898473,-0.8359408678589397,0.3958336668781157,-0.24500487801165116,-0.8111296024873502,0.8069908997912958,0.3684755140616205,-0.9744939017541872,-0.12444899565705181,-0.5667433584385184,0.5940373199654432,-0.7160633480111904,-0.326445297240719,0.7742433891568155,0.31791652157454475,0.1450062675821302,-0.8822558722709946,-0.2075610770225833,0.8959663249111569,0.7861357065852186,0.7742765768035798,-0.5207802585146155,-0.01561672192243102,0.11093852532118675,-0.34837098850322534,0.1379454482879674,-0.3977753734024916,-0.133543477850119,-0.5484601005509682,0.7833171475089196,-0.8837555894988123,-0.24983016981384742,0.9123073427623796,0.8692591559421992,-0.32013387787335357,0.3270968192714072,-0.884078062085855,0.08201726398812426,0.043724820517838436,0.8166951655209878,-0.28616402662008356,0.8600844347096046,-0.17578773587758922,-0.510544292088617,-0.8965421763782508,-0.4505813861060466,-0.16200859135160317,-0.45712884155487,-0.5006338182718597,0.5062283608572544,-0.22362428038359594,-0.3461687244308209,0.46980787679816616,0.548405982730471,0.3370155816652334,0.8528261796168799,-0.9013916139570193,-0.47915471099050366,-0.9716667572078193,0.37040548802986684,0.9188496488857503,-0.44611729427126545,-0.22989518552997512,0.6499831205848265,-0.48722593003197967,-0.516279251958256,0.006477283994320127,-0.45759530578976526,0.7511084018254199,-0.7969906975519949,0.4490555890304544,-0.7630126417975718,0.20031263376441122,-0.5676265908726408,-0.8534724937717082,0.05019296658671801,0.6611082876076593,-0.8378578348730492,0.3497132766041178,0.3536980418683138,0.584010306062152,0.3612651844038093,0.22121843569388355,0.922529659537686,-0.6707537971744806,-0.44172650120666335,0.7183365986461128,0.3104859131242723,-0.36741602723273137,0.4047433901829003,-0.7814072973726298,-0.31733335943791574,-0.5400650540449465,-0.5391705547963577,-0.023754021462913943,0.7001068647033886,-0.15178619123963033,0.19155795793131092,-0.5968620975502892,-0.06271355168698456,-0.8162103086534664,-0.7161330497282337,0.44836280051026156,-0.9205973758156583,-0.2708903508144773,0.6187293370386939,0.30655904861335515,-0.7612597436009125,0.8306392977124006,0.5075310631014609,-0.2989193635536658,-0.16926716727769597,-0.2022815727642242,0.9582808196861368,-0.36416121053491723,0.6942696475546377,-0.9206688883314136,-0.9923484400112652,0.6127482269828506,0.3956723665788622,-0.6551444698091775,-0.6496186897939518,0.7378444738977068,0.42101890185671964,0.06879834853874067,0.22195388456084908,-0.6802743355833958,-0.46274974031926885,0.7488377346961845,0.47773843234569546,-0.12684616356425504,-0.5323500545257811,-0.9587527199234802,-0.24807451277189685,-0.9561895868473074,-0.663335147128955,-0.4667533393106269,-0.047275498187732135,0.32621982986624354,-0.4014553741478515,0.7306835351054768,0.5625596276640132,0.24524006774530593,0.21012444791584106,-0.6433513581329371,0.8246584088350328,-0.06104795267181773,-0.23311453885242872,0.2382335352294973,0.2443025487283843,-0.3677244597909559,-0.0911255680923182,0.7305681915787303,-0.003769206516787582,-0.7762983786465134,-0.8781901841142825,-0.4141464034808595,0.5819221640084142,-0.29356501508572186,0.35603216146300354,0.4484271158509052,-0.3623925139922397,-0.25882152967633876,-0.8910156301711771,0.4418132296561932,0.13810082956480274,0.07533220126280638,-0.23411074302764723,0.09898675708870885,0.4755310329955367,0.11475813568803872,0.34845889708699085,0.4705099095482834,-0.666409989299998,-0.20337874316290305,-0.19725623524537728,0.5898381009900071,0.6075433402458064,-0.63755692368198,-0.47949165947407857,0.12740279013980582,-0.5002178082066935,-0.40806645689958687,-0.8625930575454162,0.7090639154482821,0.9505263873089016,0.4827375332888839,0.1181755015851349,-0.21322512358367596,-0.5382074574909363,-0.6555976133726045,0.3959351964185951,-0.12318571244061416,0.028656142266064055,-0.36893907395401015,0.481621113480764,-0.9071002174419953,0.22889113543625617,0.6873483671823428,0.9950575930268457,0.24046381834288577,-0.41947331220130213,-0.7335127562580321,-0.9790635137010064,-0.33837424043314135,-0.5582353693408124,0.1297401369250335,0.011574528778462323,-0.5373509024081373,-0.3886415398531806,-0.06752228356024825,0.9099729979764886,0.131110760290156,0.5752816455249246,0.38932928582620874,0.23162372837022738,-0.9823063464040256,-0.13187816527202667,-0.18315339329326075,0.00676409751690521,0.4435771698149318,0.8215863449870486,-0.005482611427531037,0.2812628413851721,-0.6250718674710307,0.2747813602358826,-0.44348653340723243,-0.01075164869731049,0.58615897811202,0.5657389219910756,0.45324476061905083,0.8495831190765728,0.9458403925310654,0.7889559085133844,-0.5612396872933001,0.16775100260623899,-0.7876632370326677,-0.7677119300893198,0.9495743161350803,0.1651965968675808,-0.014545962878031116,-0.4221800661424202,-0.6480731328458933,-0.5846240796394759,0.38239256703179936,-0.767018419592755,-0.6988922410990475,0.9273644316262908,-0.9884354333352217,0.025715863411459594,0.8190989905177066,-0.30874381531457207,-0.20008433855007746,0.44825886635899814,0.5625474926114298,-0.41628999413326295,-0.025510352570877748,0.3508178036951419,0.5684947393524058,-0.5890158278048772,0.032757356543767546,0.2429001479588917,-0.9151157287379135,0.8559207879492321,0.009915178468042463,-0.9108030759214962,0.10354013657752259,0.007512744340107513,0.43963962554759384,-0.47686226274516463,-0.09220417331420472,0.686701804506155,-0.1410580010603062,0.8055630137208776,-0.6462673657931006,-0.3447246203745298,0.6741097671709506,0.521093085589204,-0.16507853655777494,-0.4615213437666674,0.6810943508345293,-0.6151781742275038,0.45338127322465915,0.8712614168627166,0.1357233089007277,-0.9044164740030696,-0.5814833617728479,0.602087384748627,0.7662791032544747,0.6129196920624878,0.2420056278201368,0.29697639071074033,0.9058467340818772,0.08655344840780854,0.8084370482897885,0.20153835917017426,-0.00956249118187702,0.9108987081521231,-0.9482858016599731,0.07192224751361032,-0.8538131135789475,0.4021867864095032,-0.5210993352090154,-0.1457768037248659,0.2349225325305373,-0.22705530036850208,-0.4424954377014281,-0.30700883484855,-0.9571910231974674,0.4803705661796649,0.6951851432046479,-0.7901776639606786,-0.859272877371495,-0.9885061124763044,0.08308623033750373,-0.6151931883310382,0.24353294785422364,-0.3104145703715615,-0.9015415355931096,-0.839510054380461,-0.6017897413654016,-0.9451289537407634,0.4035627430826365,0.8298667981993046,-0.06993030014334023,0.38986220672250926,-0.7328200867887475,-0.1157641883370697,-0.7541720450846183,0.892803418036783,0.8534366561832072,0.26077760027690355,0.9368378601108249,0.5698423876249405,-0.24082954081636698,0.8897718351738948,-0.9315993128801954,0.7430040515948746,-0.04739371239372314,-0.8993783683532282,0.6055519477697462,0.0977819740332233,-0.18337949502349882,0.19598569408444555,-0.8415940877015478,0.986024773831762,-0.926034400736101,0.4306113521875068,-0.5782084249561192,0.9295001905036699,-0.7241169580044138,0.25501955717931146,-0.08390290380189036,-0.47592121042047975,0.9895097909212267,-0.32066398343768965,0.39707027457023547,-0.2613617920294147,0.5583065975563237,-0.42074062283567515,-0.8760202803819694,0.7448508574232748,-0.5867107479405216,-0.18400275457429482,0.631269598976276,0.3135292083153365,0.08613886164797124,-0.7798307317842099,0.8930065424052538,0.04194334803060573,0.7919497908524995,-0.09150438676513528,-0.18643890853452905,-0.044279018347977095,0.8836389279833237,-0.006861888366030744,-0.6927517170034785,-0.8861984350865628,0.1780729983817635,0.6280514243081874,-0.6170903861572039,-0.7790151735610125,-0.8058179629980375,0.4559806910259554,0.34218414459155744,-0.5874522069323405,0.4547817579825273,0.9096890214721125,0.5018897585433748,-0.46801660834907377,0.167548016045314,-0.941932497762674,-0.3730867662988029,-0.6974909166876588,-0.6862762480585689,0.5123870542496975,0.14152481679148088,-0.7521245645306387,-0.10568425426237282,0.44988816839742896,-0.7740814807284293,-0.838435776912289,-0.4960912178982293,0.3776882322460724,0.827806087963372,-0.536565947054962,-0.013284629672979387,-0.46780598159490805,-0.8966926645335525,0.17198963801346223,-0.3421545095833558,-0.12446196555780231,0.49241660632919415,0.7539396212856098,0.6000792441135525,0.24601791668916562,0.3566314614512487,-0.43038946570354275,-0.016822383822500564,-0.14285703071598532,-0.16644586132748596,0.5517196327724845,-0.6479177712081463,-0.2289146974580447,0.8682112822004795,0.7346878890225335,0.3402432888437954,0.7175051728608544,-0.9361330964758767,0.4359142407326526,-0.035036091403972236,0.41298987263479225,-0.22799869196585743,0.4455770065462812,0.6984026002408563,0.6858144290174037,0.29270865732926366,0.615067259117871,-0.552983598652476,0.1893255556664124,-0.06465056203174946,0.9342896390340698,0.6853595973214595,-0.6584717857077398,-0.67184830221292,-0.010981014766945352,-0.3323165032797821,0.09713830492541065,-0.5604284066561498,0.06999109704691686,-0.5954766029140541,0.5265976447311533,0.012778248627438149,-0.6709059589700337,0.23871515957165612,0.9091959023392786,-0.38245845163991654,-0.9144327269308805,0.08571339727471705,-0.27666682368006,0.6479037481221295,-0.6738155535771873,-0.4945078835303385,-0.4796878026077429,0.2836393384057574,-0.4201605346151347,0.4403745238526158,-0.23575632584293849,-0.2804058900731574,0.8361120034839697,0.7261499830376317,0.4699863475600339,0.01348325967937547,-0.08643537248711675,0.2798942817877974,0.6827554436196273,-0.45863508055971525,-0.5222709775056202,0.4284403149524567,-0.14595337589467694,-0.40637932569197743,0.44734180649789423,0.5826793619513624,0.05531396688694312,-0.25064005651543675,-0.2935224324389438,-0.936690012182287,-0.8662358904386986,-0.8276606474451929,0.3291347431866183,0.9542240767711567,0.8039319655239798,0.927551516344481,0.030108102237865086,0.9345833248143323,0.9152632483450898,-0.11871917535621623,0.8448421819551508,-0.758874607428814,-0.7519323738009767,0.8771016245404029,-0.1120368505753444,0.4669309350573989,-0.16940425913299695,-0.3958322673936361,-0.31604985528522067,-0.04405616020450798,-0.19620382512185497,0.41173031663844273,-0.23566861299273256,-0.5004465578438058,0.6053809746621739,-0.02670098931130016,-0.053064660471452196,-0.4199235993651882,-0.7499001902126714,-0.9777281930026183,-0.32711918860684897,0.5441911965978643,-0.4655570162106113,0.6909394464093468,0.45244525787642664,0.9799129339779187,0.8186109225758307,0.23937620236867008,-0.9850284632133071,0.07643132722763091,0.43011018961032965,0.840554653514084,0.1404265982046713,-0.07493066857695418,-0.7756553837753766,-0.3818510708289582,-0.22184951257813013,0.5505359223406456,0.8410056049556358,0.9631486833708793,0.21499323183831343,-0.6875772633238617,0.4137977057750861,0.11147473615689663,0.066633764499747,0.9743211183193579,0.8531490027002362,-0.2988238851602121,0.7373869475478061,-0.07210323563681564,0.6901261861271681,0.9905755523666404,0.4424700405319544,0.45497414818621484,0.45904538161709607,0.16265685511441497,-0.9895876352536901,-0.5945495218103813,0.7998865873879748,0.8180775690338511,-0.5240693332632234,-0.807316686090332,0.8536945801170261,-0.8459750591263566,0.41264915230292387,-0.8292948107080831,0.737660025221432,0.2955231810780672,0.5464172832918135,0.11986214536016604,0.8714872965315827,-0.1385492344184902,0.24953458627710678,-0.5314351304458851,0.6712652024344583,-0.6690175713608388,0.09408105297785241,0.3121257748175368,-0.22578034696417837,0.5134581196898467,0.9624981798088128,-0.8030688085112281,-0.18064928005701475,-0.17707009041556598,0.8919982072515706,0.06962860711089403,-0.7927790703082331,0.147840928414394,-0.23850636777916212,0.9324100293112378,-0.5829606540365329,-0.3787565478316308,-0.8111451550917372,0.3584803087100976,0.18862391463197836,-0.9474508527912411,0.05911186065333207,-0.43539997078496473,0.47545398007055306,0.875218938478562,0.6602232428154653,0.6996002686882425,-0.8717267422222776,-0.5458868662483778,-0.24997446678147028,-0.784836418467705,-0.9173536083478293,0.10360419980000746,0.34768013817924937,0.6961475880893304,-0.4524444997312671,-0.3499915643840019,-0.1738475230058325,0.43987574922516304,0.5060231703807867,0.5293860886154693,0.4187089269834403,0.7549012714121672,-0.05036667409227702,-0.8356618017610149,-0.710725412427502,0.7600150849727731,-0.8825880270490147,0.33194231343461045,0.13969416771171206,0.2602329680879545,-0.36999416939397545,-0.6950501379270086,-0.7020487279571694,-0.9668284315946769,0.32543176082332326,-0.8046597661429895,0.9962966197680978,0.9237327947203893,-0.8555081322458689,0.07831764894336923,0.692392997664411,-0.2016987238301453,0.277499582443143,0.9975510086067172,-0.5195670545731848,-0.621428896243656,-0.1531002476513914,-0.5396880638293264,-0.6518304148637877,-0.9769690038916501,-0.07416560424631746,-0.6380711658338978,0.3614999985634486,0.3178925375677659,-0.6270727451386497,0.8236435141630933,0.05185054898043617,-0.4843695131453958,0.35542642433807337,-0.8750670559818938,0.7947695019736212,-0.9982769207210767,0.08486797792422429,0.8547881393619761,0.7742681764946078,0.39456356115318014,0.8723281916851318,-0.2929621107733644,0.9070356708937257,-0.46500576113596703,-0.041873870365134014,-0.4893893519909265,0.011674844560980224,0.25567881949154714,-0.9354149557742861,0.7536957855723321,0.5160448556192911,0.7370820831493536,0.8336388379721764,-0.22612368598233545,0.8820574802736076,-0.10472653117432662,-0.09561792187795493,-0.13314600687880684,-0.5947448004281517,0.538767947110659,-0.3299840202741988,-0.3677725238282501,-0.024391053617848213,-0.6373238733302466,-0.4431709759485567,0.5255279953149696,-0.31756160366645303,0.9065606104554396,0.6622608066880555,-0.02392479033421524,-0.08619192930455166,0.2925804958616971,-0.21113962063957548,-0.5490595441217871,0.2305298627874448,-0.5034834063097993,-0.7611991280047976,-0.037365094961399725,0.1690264193107418,-0.8974141549687538,0.4276356779257633,0.6554364830363113,-0.02051676933257718,-0.36839930818110234,0.6693841798736977,-0.6902199535409175,0.35653712763688716,-0.9283910241281732,0.8960511910509892,0.09614121061773617,-0.87698767446761,0.07808175643563198,0.9021230716145567,0.8317362265877088,0.8530358630459949,-0.07625279651192707,-0.6433824131869359,-0.09335474845415526,0.07392849661872503,-0.9392749508022595,0.7392308327829642,0.8520319225581938,-0.2691463199959492,-0.48054757420029737,0.26393035695766476,-0.5244520899742537,0.9198117487548036,-0.08025792781820695,0.600442932516061,-0.6614243501956809,-0.661313820022374,-0.7570299226706749,-0.21233061714401846,0.9716636825319256,0.14189063852343153,-0.26027604738642185,-0.5719269420442612,0.10219883893834458,-0.6948520327508514,-0.9311117311552539,-0.7500023822339423,-0.8736401781893048,0.38799195188031854,-0.1705158471571655,0.28811499009530817,-0.5202431735381623,0.8746703353166545,-0.4379087606627394,-0.9726541099741264,0.07539518966950443,-0.4121905317093304,-0.5582062031057233,0.23868815652234177,-0.12124831620469356,-0.8171583871181722,0.76151256049131,0.09728650871066513,0.8708869051647079,-0.9625452672851387,-0.22702238248053486,0.5975621382845429,0.9053178964338469,0.5089297013849812,-0.2113494907481248,-0.17088095427067151,-0.970820640761467,-0.7023110919580564,0.7856460417083091,0.1416382915632186,0.7992901193785928,-0.7139876979593021,0.4583561966154013,0.13925940891420918,-0.816473094002526,-0.9449594395320053,-0.7123252060216312,0.9061017430547953,-0.6477143689884806,0.35699026867107175,0.03199419092675848,0.33239733032782626,-0.02425741248729696,-0.5029417665650997,-0.1647309949395248,-0.7041195077726794,0.3412236182251849,-0.24624214100589725,0.611627291533033,-0.09252034794477693,-0.4747888762010495,-0.02903251115058203,0.1497297910056259,-0.8093422295632733,0.8716234807885606,-0.31903075052929886,0.4229101712786829,0.43262714805447255,-0.17351324234177534,0.14809377995420347,0.7403525122878409,0.29698594525155464,0.8903848464784236,-0.043017533608592506,-0.1384203825901429,-0.1986009274216991,-0.8784806801385274,0.7637933463748638,-0.561293769736243,-0.08982109538700045,0.4788377930278822,0.8160895976717157,-0.7750193444079381,-0.324561004146674,-0.5634502400686721,-0.9800776541918415,-0.8626918779841932,-0.29410766679925127,0.3399152343965166,-0.5269647792052219,0.1574978748006972,0.6454353112674345,0.7759847482468225,0.7927514399829043,-0.8676364546765072,-0.6227041582997621,-0.4540954701713178,0.6337972217804777,0.62514974968316,-0.5612651375383748,-0.5891959299092042,-0.4692338205565194,0.2118257880112291,-0.6664621460655233,0.5329360199099793,0.1414434962120188,0.6923628115015215,0.7268839134044971,0.031563866215999825,-0.6407590564177614,-0.4615680283735397,0.5256307208924651,-0.30220488455431505,0.15034782521779144,0.3023301407273158,-0.11754270114176424,0.39905443830703224,0.2672859044343696,-0.9190126882136891,-0.5487872341144595,0.46314730070179966,-0.3425739604748317,0.2278450281898763,0.2853745213394563,-0.22522649021987284,0.4878904259528094,-0.8958727466160672,-0.7824258678460407,0.7592639262179917,-0.3119245389972143,-0.3197298706315459,0.602841967549985,-0.6317106031456514,-0.5824722640517295,0.4712166041540802,0.043359380124202485,-0.31055956229437,0.3228170475798604,0.15436144391497275,-0.7989179089030245,0.08865779208566105,-0.7458871503834004,0.23058804044842662,-0.9832433263569353,0.7365454155381439,0.6840891676720458,-0.7659210274914929,-0.4725287639614417,-0.675543635440929,0.997824791841698,-0.5383622708259801,0.6705072645124044,-0.4429360582309383,-0.9247526815898781,-0.8391386743274643,0.39822258615030504,0.5407829615266488,-0.8432639360868552,-0.021890602550895588,0.0909397117516364,0.8071835590512433,-0.8147317621771453,-0.11630296821973718,-0.7992584026616338,0.9061542001311114,-0.6624726952206286,-0.6862446358734839,-0.6904130017170573,-0.8703213815466395,-0.1728433969440215,0.4182029694699785,0.6651842303236872,0.19986820876712796,-0.9724351010595853,0.7905219021443048,-0.7378914091391007,0.31541067278462154,-0.4967146775693114,-0.030860440370544806,-0.7253767268690552,0.29380637811857113,0.128048171123057,0.6719381720629296,-0.5465473483494925,0.7714106665891634,-0.10986728774172527,0.680228719053189,0.8942440280686006,0.12428320606095755,-0.8753101108290908,0.4983708383909595,0.1452700245399039,0.7698065047911153,-0.7858665692455951,0.0722068767963584,0.9967110929424705,-0.7504901939837374,-0.6428237382509931,-0.6111683063171636,0.12712556345755566,-0.20825917487971202,0.026334038519203684,0.37103428378102765,0.6386882803090481,0.18181254485369647,0.18220341545724983,0.9028493830154729,-0.577386876881161,-0.398537001998013,-0.45661086105645055,0.5265004241118996,0.5874898046050656,-0.11682453737896292,-0.031047897586422346,-0.18216430835513342,-0.518423305292161,0.18164690886262536,-0.21003854291125057,0.7887904351507136,0.20110607829703442,0.3089262563377799,0.6079242065671056,-0.38669158301165774,-0.4339498677678606,-0.08396022950887572,-0.706852777726972,0.02007577087044443,0.6659477422952065,-0.14656081091526274,0.4226776264884402,-0.8366220575000605,-0.8770282744654689,-0.06718478329976896,-0.6302925091020708,0.0993926907836975,0.07571187180385719,0.3552132258147902,0.3971371766458929,-0.4172457209584801,0.9339087395746306,0.7172737647895684,0.5961638766462534,-0.42063710246910024,0.28419713769797594,0.34410406235373303,-0.24490793521975074,0.3402537267846448,0.5966769141311528,-0.06616003957108862,-0.8476334451277199,-0.5930939283941323,0.3100394038873673,0.47907571434457163,0.22207997839840843,-0.5934202048463593,0.6362110828575855,-0.698186587132483,-0.6160622329097774,-0.2221080229609409,-0.37929314780005785,0.4778581050554751,-0.8314330538032815,-0.8330930281787874,-0.22031565959134225,0.9768397161743283,-0.6826446873347334,0.03304625641118086,-0.6935974844715738,-0.13187932992024587,0.648481066272427,0.6280449977498115,-0.3939852902478913,0.7001393404650436,-0.34890459414108665,-0.6568565291897652,0.14116225894804302,0.9459636227171204,0.7514733209623465,0.4420242763121154,-0.26025142799449275,-0.9465836217129313,-0.3573894919691345,0.7487849465969116,-0.34874207887341413,0.8101077639886007,0.9758919268089363,0.8580098749987157,-0.6224468136123025,-0.36216609300620894,0.48749834365299827,0.12975722265617873,-0.49511274398031313,0.05874439045120505,-0.279008521417051,0.668546462150156,0.5890887251165746,-0.7536907208217563,0.6231031470001798,-0.0969526673400074,-0.6409306768142056,0.08695798543885225,-0.6362293006133872,0.7505840929624421,0.599796116930347,0.627123628622839,0.7711762969946494,0.36533069311134425,0.2765848290949908,0.5496305823643652,0.7395577951008085,0.08220159773667812,-0.7506840487851889,-0.06790521029875762,0.8230900683258215,0.43059212917134837,-0.6837988015353578,0.33107554927827687,0.6221612369777769,-0.03171160376043791,0.6604413837692475,-0.47493558455466456,-0.03719238737543007,0.6788434942066788,0.1544319976256816,-0.21301342308087046,0.2587746083203999,-0.8670791502570625,-0.8298560829683659,-0.6701725304250503,-0.30404781960572125,-0.8388525249129246,0.6494958890374753,0.5015608396972748,0.9216153982912918,-0.6123104354521733,0.7150184711992738,-0.6764323870680697,0.5316928897310056,-0.6821473506380038,-0.18133747206777318,-0.662110189524268,-0.6037026758531849,-0.7132244240670511,-0.19120253490001415,0.8053944828117339,-0.3266109017737253,-0.18339740680178274,0.4757999800361279,0.35754484066833814,0.6323581098312807,-0.5850687970594359,-0.48895362844037527,0.5061212385777538,0.8456596650605206,0.09268384537756846,0.9430846546175251,0.044799121856244906,0.9126239518820543,-0.9760437368712755,-0.3649497309529426,-0.8343711305091763,0.9042301262937265,-0.034728558268504406,-0.5060358187242084,0.1747357907183893,0.10796436304360313,-0.7327525470442657,-0.12373686776068538,0.7808786576123099,0.8108444479871857,0.37178936019628406,-0.6802915276936754,0.19388265184849907,0.9174999912632644,-0.6984964015875201,0.5997503553522627,0.9228506415959088,0.034349807167717517,0.121561353077563,-0.01571372017369499,0.7586499046700681,-0.9313126041275959,-0.8083318451690522,0.6058098019331322,0.6065752961990643,-0.15602347578240328,0.6848113135259346,0.591629163354161,-0.23677260371922348,-0.32907428153992124,0.21878891374796638,-0.594558541129443,0.8925437295616923,-0.5715181469060775,0.8822810002918597,-0.35338849002138306,-0.7774441946878567,-0.22990973595396724,0.5213977678076072,-0.9189783339761586,0.8542171612813207,-0.4454654616924507,0.195389673976061,-0.10473985184648371,0.5959674079311756,0.6683392642330508,-0.32768860786064535,-0.23896438056572045,-0.9797586090186277,0.5617664587124287,0.060554922718184745,-0.36533906017870366,-0.018783612046374687,0.38048249491074193,-0.44544063964222014,0.01922271458136926,-0.16595501772206567,-0.2293926269910207,0.6642302673150977,-0.1759701217278553,0.31281737039535673,-0.9842954551394858,-0.2662133676151619,0.3800457621308322,-0.6564105508285225,0.16847933321527342,-0.2056553154300702,0.39902078534322727,0.583935954808271,-0.19402007912929364,0.31378310953000144,-0.23577725349047385,0.04280442434173448,0.9917299520632354,-0.7968832265434249,0.925886463836574,-0.044208640190580795,-0.8254618129009672,0.005422092598580619,0.7728452116132081,-0.12428430826361003,-0.8871284822165826,-0.7526592224298225,-0.9266028093935579,-0.10227697179448358,0.8513910116408441,-0.38336141235973464,-0.9174739171275119,-0.6507093448280461,0.9269557696830382,0.5038242396044479,-0.8470573418174987,0.03893063660821183,-0.1423309287364669,-0.39749724787383944,0.7390915712062245,-0.2246001654210441,0.026581692500394105,-0.5876317761408338,-0.7035879947800221,0.8641171067548858,-0.28240216816512675,-0.7574313679945313,-0.10969925208025133,-0.2958228322202048,-0.9029220753899865,-0.2329440596900696,0.7460272662766072,-0.006635351536261602,-0.9510058113478475,-0.0646425567000326,0.6472681531003015,0.14832186476077514,-0.468960992954339,0.13760101784674794,0.0976666937477706,-0.7309262858462282,0.6571549748912406,-0.8522594779259374,-0.12466430878274792,-0.9441832187705179,0.7074344129044496,0.3498118816524509,0.8878558249911437,-0.9829768262675582,0.7281535663731356,0.6920034697145387,-0.8110682445615112,-0.5909975934310283,-0.26124328400594243,0.48158775283169186,0.640825886885585,-0.2873361191281032,0.6767087198287907,-0.61914344736243,0.939711462541708,0.7876897311285058,0.725236778859389,0.15660916195018193,-0.7736540298354961,-0.9016506615805113,-0.6335533085002452,0.5514324995489148,-0.039300172576398396,0.9741374525544115,-0.4602482755777477,0.10228600209626038,-0.9010322325233873,-0.1834944525555413,-0.1581359804154474,0.34172473955058225,-0.7918662622883328,0.7591931944934915,-0.6708070334354717,0.24069403164820047,0.4583559970624216,0.9641653055061905,-0.9162046041614063,-0.6882498256290828,-0.8886508625678533,0.8986014247852672,-0.48342999783945584,-0.40857559166892865,0.2965091473336765,0.08190864850534973,-0.2862705220383215,-0.0228090535254295,-0.4582586655448053,0.9714857018898702,-0.1398954486165893,0.34464498227193574,-0.3922878164280328,0.0032462308140366325,-0.5324765241534322,-0.25286834372202005,0.565068548997111,0.30396247638386953,0.6343596598182835,0.06179342276979494,-0.38943389759216274,-0.5376940980039342,-0.7320435415104838,-0.285887533170436,-0.13884490319736886,-0.967855464246071,-0.9703723529774668,0.4789801426108713,0.7723099867609857,0.5289136055280159,-0.5799434800212364,0.6012220795492305,0.7050618020179413,0.3189405596674306,-0.12150961553516604,0.6461606558821744,0.05783045869620085,0.6182451879744428,0.475469448377988,-0.10784354094087223,0.9837814103739191,-0.4000418742921561,0.4638484755418735,-0.981459060477851,0.9888104824979598,0.4231098240281814,-0.8311143033546045,0.5768320064311894,-0.5834820786516106,-0.5640530653794746,-0.22840728531362897,0.43349235611067205,-0.4569759466334844,0.9840000608700117,-0.19356632884974534,0.5891126448390405,-0.3324574726375631,-0.30772786302525423,-0.851426416800352,0.5029297436352984,0.000233729447134845,-0.11682354035544584,0.23670388670671372,-0.6196365903989822,0.8688490782031166,0.41518178882598633,0.7137791698857894,0.6962959574912462,0.5108993611266646,0.18775509643110855,0.4479756479122008,0.7638652669442931,-0.5079207234669074,0.9452554332482948,0.015476352283730233,0.18982470727283096,-0.4907101113289736,0.9924526003874081,0.34661944203116724,-0.6802983495282451,-0.47313848613180376,0.788417977286247,-0.9512967519761144,-0.5432502792061658,-0.24902816272494066,-0.31094927407490913,0.32268185452932374,0.2880040492180076,-0.6536022494898213,0.11520559602554492,-0.33264885107944875,0.9442708889629781,-0.846592889320041,-0.8856060471473428,0.37179724411715775,0.8408080764741426,0.313419218846243,0.19128341964406337,-0.44082000388476383,0.7015909565902068,0.18305735832456893,0.1827102674518999,0.42829220481040897,-0.5895342089772941,-0.8805655037338325,0.8280832803211635,-0.03096371047636426,-0.7423797395083416,0.87768409898349,0.43797302819923756,0.26917611656106555,0.1235381416071415,0.3864842390466299,-0.1528906481786514,0.22223354685100172,0.8290424499012863,-0.6974736565327477,-0.6405960080949005,-0.4068373318202687,0.23122686009913918,0.20119402956834964,-0.5355439600157934,0.8636802272449413,-0.4406264770761301,0.25444752580500096,-0.9171275259581144,-0.40497964952508636,-0.648617979477542,0.9979033901925309,-0.5461729113472604,-0.33564964294830424,-0.280760831593579,0.08208623840944917,-0.39644312196196174,0.5095767011872796,-0.04875677472353157,0.16502043214225348,0.7814338067668436,-0.019640571466174706,0.12503111972856717,-0.28599604870989226,0.28507208680990836,0.36268940870393607,-0.2076105788908449,0.45053830194358535,0.5692491558488959,0.3271176873398658,0.6592791085191727,-0.5513145722197352,0.039528057097361735,0.025842562682424575,0.5283852759646563,-0.03701372513870882,-0.012659244532281289,-0.4137793092181361,0.2413151850378792,0.7926864464678247,0.0792805186621992,-0.38974926637483387,-0.965762484200017,0.30874269136177857,-0.8789645390249421,0.2727979479737803,-0.30828294852110916,0.4780313612510112,0.9244377615942492,-0.9114611149160583,-0.2820257705113791,0.02138453122157835,0.14966721006067796,-0.4487911414295722,-0.11693244894082744,-0.3231660687570974,0.5250401171602614,0.871061278241263,-0.07423067891876589,0.6772051873063121,0.6064856593669841,0.961462009715981,-0.6809126727136703,-0.33695576958849416,0.2815191547342373,0.7660995703956082,-0.9898723135893794,-0.9280020450074802,0.8987447670481701,0.15731057461701736,0.1664349371853564,-0.4285829405551589,0.015289360953141484,-0.4884106760922442,0.9085300873295385,0.6473453592502239,0.948287640214879,-0.7370748707307666,-0.9983737430016477,-0.5661199101982921,0.777484116905347,-0.50487496303897,0.7080645177505218,-0.927059702391557,-0.44174116695407273,-0.3656992805870296,0.9852801119543135,0.13093890963822807,0.4105621785072038,-0.3269358013318795,-0.14726484556727604,-0.7427090525032793,-0.3421828003698102,-0.02310310834048601,-0.8534214502639128,0.7912621771280708,-0.24489972232829427,-0.05796796854933395,-0.17440774918189295,-0.3253314791559141,0.9824743971396523,0.18060322559734865,-0.023569083610880615,0.5746277016383055,-0.7128537057226716,0.548634977368919,-0.44411285090451535,0.5355101645489588,-0.6401068657985227,0.7777024595770867,0.5925781851831273,-0.6927150618798552,0.940088375178949,0.7106232967218473,-0.3402744639350057,0.06466236781583645,0.1612295040721221,-0.8068587188000624,0.26260735805671986,-0.763447384057101,0.042599266292823845,-0.4506759066236081,-0.5813097795831417,-0.4401825470546057,-0.7197763728490858,0.9322890317081793,0.41351119859803354,-0.8523690228382286,-0.8232069803584747,0.4790771642389968,-0.39735157757936546,0.6657681653034353,-0.7055921592915237,-0.7082429825721275,-0.35216274524424995,0.535194826269715,0.6038450051431938,0.9173226740737777,0.8315236666217845,0.8094035941796507,0.14884713472380517,0.6941009646334295,0.24945908739038458,0.36294146975105157,0.005424941096916047,0.36966919452995417,0.15767883217150658,-0.6210267216200938,-0.869819918062279,0.03367358765728956,-0.3854353281931988,0.8454792342146615,0.7615200916955653,0.7143600711547031,-0.5684273962382438,0.6273723893596954,0.9056823236030882,0.9775867460755725,0.19830231039635082,0.5501907995578637,-0.6291787236101318,-0.8747420484222515,-0.8222733909557851,-0.1886874904225715,-0.7394096728850743,0.8210047931780993,0.06802480934284527,-0.20613722494482856,-0.32098968486598256,0.8639542193333525,-0.7966723806133802,0.23639385491486165,-0.8828548956137314,0.15936690756388705,0.31265494353436685,0.3456973586718879,-0.7312746548071598,-0.741844638354616,-0.8612790615087291,0.6828022122466046,0.7070293456919072,0.17119682565154948,-0.5614735399311668,-0.18576321473501922,0.7448813972827215,0.4880720537834742,0.13467840300609546,0.19893680070975983,0.21941999854978889,0.7871508246027856,-0.4493447971240645,-0.004892841564573702,0.2050806118610562,-0.9204649366827868,-0.36318100074543835,-0.7619965190174374,0.39117777775485996,-0.3227344132745933,0.060840184687324994,-0.6231284722118211,0.49034894697064924,0.3912504369709695,-0.8115220392467202,0.0735738397650505,-0.8276237213993087,-0.7515343286322438,-0.5663735972579855,-0.7675042333494899,0.2694201505437974,0.3390380423921524,0.691100163523368,0.8865107468089957,0.5413278063812821,-0.983938553571228,0.08508110328822682,-0.3943012326911002,0.5215928211539473,-0.7841247575275914,0.38162271338931375,0.20584200393995222,0.9635224930264559,-0.9879115134067105,-0.20616735793333651,0.7173185308675212,0.7257900690449226,0.188382264667331,0.07208379256679742,-0.9806498284288163,-0.6135921574332972,0.6498105048827796,0.7274891101755134,-0.8756487902285088,0.8097071151769468,-0.4911463484085983,0.3614157123660615,0.3282509326706762,-0.12059493215973927,-0.6373804839192032,0.08306283597511266,-0.863296214397758,-0.8220548489426911,-0.4495192224939488,0.22695227290510678,-0.1971154737348657,-0.5984483994591214,0.05681068833280456,-0.6718052219893424,-0.7149670950420519,-0.33758328127195414,0.9989941200232328,-0.9500851249469229,-0.012733010777798759,-0.7216675003869726,0.273636916779026,-0.3011850746687219,0.01066878926118675,0.9956646323547045,-0.3579393341535042,-0.5036786755281679,-0.4666311992410441,0.913393476274027,-0.028072551602898344,0.9264031693562726,0.1959718712461065,-0.20693075607328582,0.05775230951319288,0.36664506021599363,-0.699556513861711,0.018802544708804936,-0.513123170294459,-0.2608701709116321,-0.14815070671842423,-0.9736364261687287,0.25601449185438696,-0.685474144069212,0.9217083592923145,0.7701520812121518,-0.8092052697052936,0.6532889304468621,0.32680901895665704,0.46658047831191496,0.4348380648189689,0.7362381294592948,-0.6222565725327689,0.6001317128887029,-0.11677497907940393,0.966904455226641,-0.22116211794958973,-0.7318494446170807,0.8768890861643059,-0.472726313286278,-0.1859805123747822,0.6870613249296431,-0.6548583639179564,0.4765793096838691,0.6034043203018389,0.5459787338850266,0.4056015645553608,-0.19549192135902493,-0.2430260030863245,0.14875662956101032,0.0103717665356855,0.12937569424459205,-0.8251269845039049,-0.7971443022602946,-0.4969964755704972,-0.9558112131241794,0.5100867991972877,-0.8908673134662157,0.1433814935237374,0.39753445030750933,0.37496422832487397,0.22835745413901343,0.772813399610742,-0.6178243328032773,-0.8902960877553805,-0.39867826318600597,0.7094214474078708,0.10597989880110914,-0.3223764380007237,0.33762579927675995,-0.7574490605179109,-0.9403057731218436,0.11370697826354115,-0.7778265439222054,0.31059762605692587,-0.12704688138769393,0.4772592113206484,0.7729005613336464,0.3854081984078188,-0.20861400130834462,-0.5880131859937485,-0.6064486855155602,-0.4786448426836414,-0.508568941424433,-0.3767884303333682,0.3455736828453515,0.7848615149035911,-0.0697878572952706,0.35709184758062595,-0.43625097946157165,-0.5144308092840546,0.4918263172575039,0.8098403178312079,-0.8913284391820342,-0.019314486360259453,0.23760831425406148,-0.9215218079250631,-0.11414572549460256,0.4142407402160555,0.6305055080765256,-0.28678315664263754,0.28096203945291376,0.4050260873405238,-0.6845294897361012,0.5048123648329699,-0.11841745460334052,-0.14379413744615333,0.6498311048711607,0.9969413001478609,-0.12165974266261315,-0.11554089970617198,0.48119006163763456,-0.23629675059099897,-0.9024162931468693,0.6444400317889216,0.37392753060412987,-0.7131480440698126,0.16123928853061753,-0.8935310639212424,-0.373535381146916,0.851609239661828,-0.24542251041242014,0.010769092334666608,-0.22415587779003943,0.5922113341999136,-0.28753892460591013,-0.9707468422070378,0.41698835523875855,0.6799785860751879,0.9119474333687771,0.6458918176447273,-0.1148528991098714,0.8851174710413576,-0.8710201485478977,-0.5555083987157738,0.5099281966160469,-0.573695559639527,-0.49997569747533355,-0.8400708519152511,0.3359018505798921,-0.647202788148008,0.22424871411657432,-0.3513872930920072,0.1350125059340106,-0.9820519200377862,0.2716738465531807,0.9769151522038273,-0.5006035419643693,0.8627670556932097,0.4050926020344161,-0.7149876056520708,-0.7193566964687146,-0.722110538828385,0.4140183591704565,-0.23682890653080424,0.0898793426470208,0.6696591226661506,0.19303803358404115,-0.06388825924350239,0.9749539378644381,-0.48378566709024495,0.8020584817498393,0.8515129176434821,0.6776283855227272,0.9287631033514401,-0.7671216765854945,0.66453363353586,-0.06868348887818665,0.8576859526074037,0.6313251097335499,-0.1682463240083214,0.7207128734229629,-0.5101481062688149,-0.4875813841893035,-0.5170047466364724,0.630279596923097,-0.051920883143034,-0.24364068589385668,-0.5871589316840238,0.18789788359365134,0.05684483507569049,0.7865759237462904,0.1216417970299315,0.32337330863191704,-0.04239553894803616,0.8231000191952715,0.9462507361834549,0.011232307351383142,0.30195926454631516,-0.14538308796055976,-0.4159187117272021,-0.08148337317230503,-0.12416912346691045,0.12450041437840209,-0.2589746852670576,0.42924368866204543,0.31381155388831106,0.42221712127760136,0.8291828966699806,0.21227292765938532,-0.7733892501015416,0.664128807703289,0.11846081502119432,-0.06846758885051929,0.6381563236496957,-0.14381881757674342,-0.5714709679935566,0.8694818858123303,-0.10035532230436917,-0.7667075619193793,0.7614207622550135,0.5822043174031712,0.19010023248469343,0.3517328102701591,0.13427921753813443,-0.2618666950662343,-0.2540442451130873,-0.620423065628626,0.26759054155778084,-0.5794993968261715,-0.9702927077167989,0.1702840242309076,0.9476427748888439,-0.4227826224598237,-0.3333490409298059,-0.09275720219697914,0.12969236707189857,-0.7283356797689309,-0.5670057483516548,0.770546123695026,0.17436473161858257,-0.7787434081417661,0.9233609144187167,0.8867445665980445,-0.681538008305351,-0.9567607291459901,0.7940591354462039,-0.2864337025939623,0.022291518987394676,0.6326371775923905,-0.5584287636056133,0.3974633532262599,0.5126213723399986,-0.1463696043348568,0.5387679609298359,0.24517324675247387,-0.31763694258784336,-0.6500716631066334,-0.5128645119560082,0.7646082842015096,0.6450982877146045,0.15827327904919097,-0.24291122024989864,-0.6937983487379642,0.4597439573162052,0.885812318320867,0.9904398835452526,0.5942958795337023,0.9587606867081904,0.5488597491192684,0.5335743208336443,-0.3200192540277469,0.04540032818993578,0.2849399092783609,0.9899381115114827,-0.2020126682646588,-0.6901729641601646,0.5780128733718666,-0.8399351130142809,-0.09076222225415242,-0.8312697260272748,0.5257590196383086,0.39350748814828895,-0.01992563384147905,0.043657888417272694,0.40272413320319256,0.07447880832338072,-0.11773758987744642,0.2368922576669934,-0.2432282927364957,0.4222056483920056,-0.8928195920475444,-0.2622785083949726,0.5996713299414642,-0.8641953310119923,0.3068807831139224,-0.7588383393611284,0.9712325162887736,-0.20140360664993873,-0.7141897927855829,-0.9920589721735353,-0.4599695710197942,0.9966458669382905,0.5749896194852298,-0.4031128080302384,-0.3037517442915505,-0.9228592397854805,-0.9694321755099717,0.9723674495842769,-0.9783542803876859,0.35176344298995454,-0.800235956898729,0.630177641240538,-0.8467365758818806,-0.31548786870915113,0.7407806816937745,-0.236402943041639,0.4323539925003399,0.7539515246043873,0.7658369249956576,0.522127462141204,-0.14243488185635678,0.4199310498705118,0.16264628577668572,0.3712170164694102,-0.3746278533998664,-0.09276976021259564,-0.07036949759526578,0.11570107623925208,-0.266199760473393,0.8320006890919793,-0.8672999002567683,0.8682903254781174,-0.852789699170297,0.11213861626041055,-0.38232438216158493,-0.4203769888035045,0.4320628990485216,-0.3200318372445614,0.4756208345758912,-0.6450316451617677,0.47395756636613284,-0.7371808676763072,-0.8343065690784048,0.10058918525442562,-0.24018350193848437,-0.007809936131237594,-0.9574655840096962,0.4582023064742411,0.5802391778780831,-0.06426256702216326,-0.43803945499839503,0.4767230537702005,-0.3592481396540059,0.33746196781233495,0.2905582645638416,-0.46218540847390654,-0.5122951704689449,-0.874262578460683,-0.3756239648526609,0.22569623679514494,0.4103641758962411,0.4910651197496625,0.7383999332575097,0.14638405775229413,-0.22440573053589152,0.9028614238574284,-0.6551537906814096,-0.8623636614346224,0.016683830897770813,0.4847231240250929,0.334537622629423,0.5717290867690434,0.9056751457697583,0.4668279003881193,-0.8564277461978309,-0.7568446307413559,-0.7330423213121426,-0.04186068646293295,-0.4076422185592319,-0.4847276535633904,0.1747967206888552,-0.16870987933759607,-0.2484870565502062,-0.012281690863476191,-0.7270079847605937,0.9753731416870568,0.290418613291771,0.19712318533811302,0.20387243272030942,0.610378722430865,0.17481315324121227,0.6605432349631808,-0.48710623178112966,0.46777772965867914,0.7132097108275766,-0.649379523231197,-0.45214917318786463,0.6827184283977557,0.5004530317796698,-0.7214462559842754,0.5527646875762662,0.6742358756906961,0.05948537454533365,-0.4805938922922859,0.3333643262038124,0.009613850777554278,0.38644366752872283,0.7806804170958492,0.1568251798685525,0.5960397789757239,-0.2665590167187448,-0.9452852139315853,-0.15675849914805484,-0.9942813102082204,0.4100077278178844,-0.7682591836702477,-0.22195307505647022,-0.9795024135311436,-0.32285013423881304,-0.8835095682564078,-0.6114689331072991,-0.3080040573292504,0.28842941974059366,0.7723307571990763,-0.0486668040507392,0.565574076425976,0.950135035979665,-0.4766183361586984,-0.34063237867161056,-0.1368030346812279,-0.2736004347918135,-0.9545370945375717,0.5478370445598888,-0.276547286012208,0.056546848845521414,0.004287967632126577,0.40221921402841154,0.2216449050246425,0.6692138419182145,0.8618820384171584,0.3739067708768793,0.7399879495933384,-0.5121205252635761,0.8119888755793445,-0.7021367050038161,-0.3962803122621894,-0.10924878004863925,0.8065506398379063,0.368770829084472,-0.9869932025163792,-0.05616598517575522,-0.18845102038691453,-0.3670595647047732,0.6223781333642167,0.8532120386608244,-0.9309841469372893,-0.7421070217121557,0.8265922391455276,0.6044517621335368,-0.0851656655753692,-0.8139786335041967,0.3741837447530383,0.598558630357418,-0.9968082012670183,0.6933489081741546,-0.8582021010940151,0.13845757746398912,0.7545159156996342,-0.8666027482013798,-0.14131970745061118,-0.4254840495037657,0.6955787200446348,-0.3164173596302984,0.6329823270872774,0.17814197195940773,-0.19186695193085024,0.05300179882440159,0.5146037494773386,-0.07695493218602856,0.967299617348139,-0.3813546860551076,0.6271710936493928,0.8787636954304556,-0.07284251369647254,0.5828487668454125,0.058774933539564866,-0.5842423488149977,-0.577029698713877,0.3189490519642364,-0.030566888341788445,0.46692743699160455,0.2872821047545462,0.10422163482390179,0.2625275629589139,0.914521133818875,-0.12488231345850798,0.362985258308278,-0.052906478046246264,-0.9674842646952535,0.764675446850017,0.05470561479224201,-0.7823543042795356,-0.4949573361382438,-0.8274746016397498,0.27603855507053066,-0.8886359428521533,0.659456342051393,0.7673858977059018,0.8558750231508638,0.5011278870598106,0.22064231189275274,0.8867373719579228,0.4651946264228566,0.7101916028281949,-0.22193064337873092,-0.42433972948526777,-0.7951438500561545,-0.3119447717199124,0.6683699574297555,-0.8550813413619445,0.48079268361784266,-0.34276113932592156,-0.7117339465614287,0.4615192864649198,-0.8445500328219009,0.5321924326977836,-0.2102456693296073,-0.019415885673934374,0.029145212280246025,-0.661274810270037,-0.016553518960672253,-0.6989153452988102,0.8165020105137679,-0.5756006267965916,-0.5404375471295844,-0.3876573812157482,0.0794813289888523,0.5940902980647316,-0.35193652984694546,0.605643632599806,-0.11083351163997546,0.779851771534178,-0.3071436669573733,0.7354128175087435,-0.6531794811025706,-0.538763580733461,0.7036487087977519,-0.34791927212510876,0.6532978900431026,0.9866463676617547,0.6652163727208336,0.31506849804773696,0.8221946809034888,0.9709676792707878,-0.29572329161089983,-0.8841195242659048,-0.461968140344698,0.419238629946012,0.9733654858963923,0.524337876731714,0.11480017935727238,-0.867414637780886,0.8058402305283308,0.00965702124541834,0.33800986841673053,0.05263433397143613,-0.7930572367741731,0.7548798789459907,-0.420273520217298,-0.5783216045466857,0.0030216866685759403,0.04517250318237198,-0.23726923916398612,0.13823620513370294,-0.6097808051568796,0.061203044047825506,-0.5886733026275188,-0.3369415762122867,0.16469333261750796,0.5615656443238304,0.6924739113655929,-0.3879438679484992,-0.8338454494630825,0.011365385905975023,0.6401643816091134,0.7506759004266328,0.7543987469576368,0.18040606172578477,0.3189389119346917,-0.6389065869141646,0.060915153091339214,0.3773847277028439,-0.16618017417055597,0.10844729508961204,0.14132468287702804,-0.468515403383051,0.7344666312647183,-0.4452000773223377,-0.3845477507808681,-0.13136939069178521,-0.6896681853524043,0.7364304170362026,-0.1759299667953147,-0.6181754011585465,0.48260139349269626,0.2058298439729871,0.9757746863611254,-0.7927297096287387,-0.9464953047189806,0.920136507545495,-0.9149404467933677,-0.6591445871796566,-0.6730555664062627,-0.402106636802942,-0.08650303211567012,0.7288066839818892,-0.5747821099514301,-0.6986256248502687,-0.558531155925817,0.9310855106707359,0.7840139069114127,-0.611801770432377,-0.287690886133416,0.06024141781045467,0.021076357357811437,-0.5142008175605206,-0.9160993630609,0.12782703696617603,-0.5376495729833322,0.989484912429192,0.21076282709706295,-0.3383367976703946,-0.28824498189855996,0.4977161779092363,-0.7555967503714887,-0.05714992074001124,-0.8478522594294626,0.9948787836085429,-0.6199301013461482,-0.48432740806203856,-0.332132172808574,0.6942503092174532,0.9557597969225335,0.4654127423418224,0.7327619591115244,0.7636325101139949,-0.6568923179777353,0.2341008128947566,0.9629090335827353,-0.8900699124220768,0.44591571630843374,0.5859408503670895,-0.490003287662234,0.8259418819269704,-0.7206270023928325,0.35750609058976024,0.9344706449019478,-0.047754666662480405,0.046552901901725674,0.890502329484913,0.6265117658512811,0.13504934479104658,0.3421067567505123,-0.4218107811716707,0.1451536259007573,0.38507901558404756,-0.719125653397646,0.37124134147675236,-0.15797562579012014,0.7809180064973691,-0.7839045125748836,-0.5315089651863034,-0.0043941647055447675,-0.6351844325083895,-0.8799431468405958,-0.4120102021487513,0.7853040457607854,-0.6055016116699616,-0.22395558032649965,0.5495553136509879,0.5432938831004825,-0.08459760642639269,-0.2382764604613392,-0.06702570667788521,0.6561594428675863,0.5294781475101369,-0.8104604775445927,-0.7777436944493799,-0.5165598750475318,-0.5809196247759816,-0.6771442446882898,-0.8548547310819461,0.42570151545770263,0.9574146978857845,-0.8632535619038089,0.7242758723178959,0.10651804311480362,0.8664124754480369,-0.5367965311691314,0.28469713661448415,-0.3599951514212987,0.42849228544243734,0.735608069884004,-0.7532350540496999,0.872144276369277,0.6282724730163711,0.23867812254728937,0.6771248744455529,-0.30748800842641955,-0.9990006733170622,0.372205000560464,0.7996777159844568,-0.0337787970383121,-0.07603523564026782,0.6448790595441773,-0.8608095604565513,-0.57197770340081,-0.5710134710608019,-0.5357422496755271,-0.04253989569318728,-0.6181110922379429,0.5797259112609794,-0.7130332113181461,0.2802456367720636,-0.36245847404531983,0.3640342166557422,0.9642486162068495,-0.8628353207669148,-0.4277609770305175,0.20706774110127024,0.8425320290199743,-0.023175182331588218,-0.7652333283289066,0.043693128506910206,0.4745806867517839,0.8638415406607718,-0.559578013875083,-0.17169021387679462,0.03098604979917119,0.3470930266138923,-0.9773248085285846,-0.6427198568744088,-0.6329645590935287,0.9078043211471047,-0.14420676930387133,0.07116883786776929,-0.6040533565332549,-0.37066615309145456,0.8093696517727622,0.11895172471930948,-0.5984024255026965,0.35231120740018995,-0.03131934737144926,0.4338578289452426,0.3102976132545179,-0.6613153150013242,0.37718446668868966,-0.692789158298653,0.061017323417468905,-0.35738615945798435,-0.9049681353322205,0.8184200730736657,-0.7309250319233442,-0.8790753028971858,0.5209664532577267,-0.674349128872926,-0.7766107115431518,0.6185473043296068,0.6797225488185412,0.4963413807528363,-0.22590349848245528,-0.6467523099941368,0.5483063355857607,-0.3562752482999585,-0.6895419558325491,-0.84577482173705,-0.9110388656779709,-0.6916310853304979,-0.1482273018060709,-0.4312709010761224,0.5335527863296414,-0.8747796255051539,0.32137527104577956,0.5884727840856907,0.9206890689232372,-0.6038088602548941,-0.6340176276216543,-0.45176291640552124,-0.5406710633656424,0.8544194079708711,-0.5906773578350348,-0.7019727036632468,-0.04253045047981385,0.25153367893135425,-0.6101879787638544,-0.07089048343840698,0.754977298554119,0.8239804820586729,0.9674433327058152,0.1783536361835234,-0.4460160334018697,-0.6568836357339791,-0.347341197782979,0.6929605697447241,-0.39974951551889526,-0.1600586173369838,-0.6619668537050309,-0.7685086190977328,-0.3645049563519669,0.13257560587086537,-0.9115848915818692,-0.909055068205608,-0.37771135167714287,0.017075015437316488,0.20453330655337476,0.6085790376786018,0.013393280595271673,-0.9427209818292277,0.5292614676528737,-0.12364791499404593,0.21849046193570265,-0.8319293108017591,0.41796997579651896,-0.35143899075921503,-0.9913416149034209,-0.8990543656525947,0.4506393424830528,-0.47721363239532244,-0.2381359484603176,0.2900341004088287,0.42326313479906275,-0.5194563408407735,-0.5855504282940425,0.7995139150009882,-0.7433576853052195,0.5459239902530635,-0.7882398737689307,0.3590716933814899,0.7458816675538629,0.3323502680110124,0.20775897027624102,0.2600701030980648,-0.8881151227515607,-0.08452149903954842,-0.8701501123987625,-0.04027742573820303,0.32701338155615667,-0.8262349138557508,-0.3757122347889108,-0.07994472486362114,0.11489639787423478,0.7778256246420374,-0.5565421103041233,-0.6690924826648152,0.03447470429128918,-0.5841519809481632,0.8014537926370102,0.6984252414093912,0.1542181335486983,0.8103825693673894,0.3527963957535525,0.5835325803722358,-0.6287165500507583,-0.9407314632274566,0.7345685589420736,-0.7089986960069947,-0.9815713337057375,-0.5899954060093058,-0.23258488620657158,0.17327894463387294,0.2961872974250219,-0.057582920842919716,0.2098132684621954,0.6088953926410265,0.15345590316429214,-0.5402668620022446,0.25528750730804406,0.7551235707424033,0.19155581445592262,-0.03390488838044203,-0.5563167141335839,-0.043639711859384755,0.4612491213186969,-0.8334169875887523,-0.6586492137224698,0.011210647037620092,-0.009051695330342335,-0.29438845427865656,-0.5203302625968329,-0.6185006823654349,0.7243223003834647,-0.3074093955539443,-0.008861024289575692,0.8071403854296721,-0.9215968344920544,-0.7776487478742504,-0.9881224263140882,0.1033921851204942,-0.016517087509680728,-0.05316750049146646,-0.6526301419349465,0.4207948787121898,0.9453483999133556,0.6100313161506532,-0.30981539313094597,-0.7496049158206561,0.20121571311875752,-0.9838085553416009,0.3337548823765213,0.687481942111706,0.4726289621888511,-0.36311059157688375,0.9561415912638982,-0.9376951520040049,-0.6167129211655931,0.7838425246139387,-0.7028078352950125,-0.934151270761679,0.4621338914481459,0.21645172329881324,-0.7007765230011125,0.2723195034941437,0.04991483870791735,-0.4376408157087137,0.8886950280612358,0.9325236507812265,-0.3450317878450111,-0.17401624287447692,0.020345484726118634,0.36277127989061997,-0.24825279355766416,-0.1147444453685118,-0.47689968923652626,0.286084864876202,0.18491122564400997,-0.6678181022241387,0.053886899171121216,0.5526541662763385,-0.030682873775212283,0.25980721238231586,-0.6907381634896632,0.3344289194051384,-0.5056155894504324,0.3952535715821648,-0.7462142352682979,0.6996234141072746,-0.22222636609709268,0.5567435898301976,0.5851954531626018,0.018065368644204494,0.6561517455519115,0.4824235613330783,0.513307778446124,-0.16003388601462754,-0.30338201671320464,0.06422964813851317,-0.14617428262717502,0.48030518461728966,0.7654493193889431,-0.09555242778633977,0.6520137169344273,-0.6493408606464495,-0.42573336474305146,-0.4438443691467624,0.4956503823181908,0.24847668670809986,-0.3204992724634286,0.14029725615064859,-0.31295726465923224,0.6457400699393394,0.24598444710745415,-0.11561701077331055,0.19086779046001956,-0.38298250937755407,-0.8085215301896389,0.7387217018906644,-0.23952983719846177,-0.028074729252348885,-0.08377333621349936,0.8467592308601513,0.9367571377949866,0.47884940367769335,-0.2048192986411821,-0.1529685120363995,-0.4390056963471334,0.8803360917327507,0.7787004980397294,-0.4956695047940727,-0.6080711886358718,-0.6379431293237448,0.06817844926414596,0.5053393876834222,-0.21561486588511403,0.3557874254496114,0.07271685729006205,0.7800969496364667,-0.5460470986821244,0.7014654615686233,0.635045099608947,-0.2751802128768275,0.716085786928988,-0.67270316062229,0.7464218729176053,0.4747657724776262,0.032508010560275524,-0.8553813387561455,-0.3710192080446857,0.8301159896544883,0.8529750867149342,-0.8239476935207222,0.5039247175352704,0.5066264645628558,-0.8663328797034897,-0.8620727931881211,-0.7193871203723927,-0.3092914087953291,0.3940748255801352,0.12533879741327314,0.2739987832173685,-0.1986714571576662,-0.3755819523301249,0.8860501288276454,0.31577394548680315,-0.24501701731091718,-0.07766720178010522,-0.7362099902986263,0.37144372530135317,0.845905326018076,-0.004450255703365658,0.7955030676505768,-0.8147649088778592,0.5198599257792083,-0.23932690792755418,0.5525314059330795,-0.3113036664751203,0.7050339910612022,-0.9994099861507073,-0.6996790484118673,-0.3883443902010073,-0.5433149163337765,-0.8483626623880511,-0.2547637806884706,-0.8122938804718967,-0.07602280724632804,0.16179088042176182,0.09755830320629033,0.6464347277877116,-0.6019879655512588,0.8622686048874593,0.4824866903100493,-0.4005013743177792,0.2506572109031564,-0.8191888268191048,-0.7454980480531586,0.299833360378126,0.9937080541027021,-0.987437473885892,-0.9317128608935805,-0.22277473399975212,-0.7643643590638514,-0.12450646557463863,-0.8545451828448991,-0.29184028364849257,-0.30756549325655613,-0.181646243371812,0.38455851609685343,0.651808288982348,0.16473532926629475,-0.48426271135102406,0.18332067344935754,0.980502986618037,-0.15332442336467555,0.27389738187898827,-0.5533515782593985,-0.7125816627338843,-0.9168116358054237,0.8869590766257316,0.3519484021490613,0.4478046435353369,0.3851824069463683,-0.4834103298147241,-0.5855825803600638,0.3149486844186833,-0.34402373460382263,0.5392519317958138,0.15679341797194146,-0.9001296347095082,0.3122290348846568,0.8367151032052802,0.6460392446302641,-0.43822651561375814,0.6036789465950756,-0.06320949973520595,-0.7866596119209632,-0.982599205121474,-0.9378346959246731,-0.7166270054237236,0.36193559550351506,-0.40274864325405146,-0.754908403316003,-0.5189639267423243,0.19474653600969805,-0.26637080454254836,0.13509934558164316,0.8060122631130542,-0.8793303525997067,-0.04823783066895193,0.024218974253173986,0.4553712588486736,-0.10633259754593238,0.6397026812030198,-0.8526942136980205,0.31971221982566167,-0.5863355490906312,0.028989523282998864,-0.25935299258048805,0.648771301345999,-0.28888156471978865,-0.9986064474509375,-0.8588136675023987,0.7875794633184541,-0.44556957711744016,-0.4572150170603275,0.886085295938982,0.10617361097856604,